{"learner":{"attributes":{"scikit_learn":"{\"_estimator_type\": \"regressor\"}"},"feature_names":[],"feature_types":[],"gradient_booster":{"model":{"gbtree_model_param":{"num_parallel_tree":"1","num_trees":"100"},"iteration_indptr":[0,1,2,3,4,5,6,7,8,9,10,11,12,13,14,15,16,17,18,19,20,21,22,23,24,25,26,27,28,29,30,31,32,33,34,35,36,37,38,39,40,41,42,43,44,45,46,47,48,49,50,51,52,53,54,55,56,57,58,59,60,61,62,63,64,65,66,67,68,69,70,71,72,73,74,75,76,77,78,79,80,81,82,83,84,85,86,87,88,89,90,91,92,93,94,95,96,97,98,99,100],"tree_info":[0,0,0,0,0,0,0,0,0,0,0,0,0,0,0,0,0,0,0,0,0,0,0,0,0,0,0,0,0,0,0,0,0,0,0,0,0,0,0,0,0,0,0,0,0,0,0,0,0,0,0,0,0,0,0,0,0,0,0,0,0,0,0,0,0,0,0,0,0,0,0,0,0,0,0,0,0,0,0,0,0,0,0,0,0,0,0,0,0,0,0,0,0,0,0,0,0,0,0,0],"trees":[{"base_weights":[1.2767757E-3,-4.7831425E-1,6.9370985E-2,-9.367543E-1,-5.9248634E-2,-2.2597423E-1,1.3760395E-1,-1.0249251E0,1.1945556E-1,-1.17796004E-1,9.901543E-1,7.7358794E-1,-3.294664E-1,1.5927961E-1,-4.022563E-1,-1.4063435E0,-9.1195154E-1,2.6239151E-2,8.520673E-2,-7.807289E-2,-8.3954704E-1,-1.3926704E-2,1.0958784E0,1.3099407E0,6.3079104E-2,-5.623112E-2,-4.772506E-1,1.8281934E-3,2.3567402E-1,8.4560585E-1,-5.455276E-1,-1.5597463E-2,-1.5245263E-1,-6.267485E-2,-1.1928853E-1,1.7153775E-2,-3.5678502E-2,-1.076373E-2,4.9612362E-2,1.8741434E-2,-1.0636808E-1,1.3298981E-1,2.9536432E-2,-7.178267E-2,1.3957405E-1,1.388996E-1,-1.7025769E-2,-4.6420563E-2,2.8691837E-3,-1.9563047E-2,-6.8956666E-2,-2.9699286E-2,1.3474889E-2,2.726659E-2,-8.078185E-4,1.3498264E-2,1.232393E-1,-3.57924E-2,-1.3073246E-1],"categories":[],"categories_nodes":[],"categories_segments":[],"categories_sizes":[],"default_left":[0,0,0,0,0,0,0,0,0,0,0,0,0,0,0,0,0,0,0,0,0,0,0,0,0,0,0,0,0,0,0,0,0,0,0,0,0,0,0,0,0,0,0,0,0,0,0,0,0,0,0,0,0,0,0,0,0,0,0],"id":0,"left_children":[1,3,5,7,9,11,13,15,17,19,21,23,25,27,29,31,33,35,-1,37,39,-1,41,43,45,47,49,51,53,55,57,-1,-1,-1,-1,-1,-1,-1,-1,-1,-1,-1,-1,-1,-1,-1,-1,-1,-1,-1,-1,-1,-1,-1,-1,-1,-1,-1,-1],"loss_changes":[1.2213909E2,8.927864E1,6.602982E1,2.0796616E1,1.51079445E1,6.3874687E1,3.120263E1,7.5509796E0,1.2068883E0,6.5859394E0,1.7049103E0,2.2020206E1,2.2505123E1,3.0780266E1,1.887593E1,6.4119644E0,1.2152191E1,1.0073011E0,0E0,3.805048E0,2.9614687E0,0E0,1.8552294E0,6.743309E0,8.280501E0,6.83866E0,2.1509972E1,3.3285244E1,1.5538223E1,2.8571072E0,1.2823248E1,0E0,0E0,0E0,0E0,0E0,0E0,0E0,0E0,0E0,0E0,0E0,0E0,0E0,0E0,0E0,0E0,0E0,0E0,0E0,0E0,0E0,0E0,0E0,0E0,0E0,0E0,0E0,0E0],"parents":[2147483647,0,0,1,1,2,2,3,3,4,4,5,5,6,6,7,7,8,8,9,9,10,10,11,11,12,12,13,13,14,14,15,15,16,16,17,17,19,19,20,20,22,22,23,23,24,24,25,25,26,26,27,27,28,28,29,29,30,30],"right_children":[2,4,6,8,10,12,14,16,18,20,22,24,26,28,30,32,34,36,-1,38,40,-1,42,44,46,48,50,52,54,56,58,-1,-1,-1,-1,-1,-1,-1,-1,-1,-1,-1,-1,-1,-1,-1,-1,-1,-1,-1,-1,-1,-1,-1,-1,-1,-1,-1,-1],"split_conditions":[-1.0961174E0,-3.234517E-1,-2.4265358E0,1.5676779E0,-1.1409674E0,-6.96595E-1,1.7975682E0,-1.7097964E0,-4.804103E-1,1.9541624E0,-8.918398E-1,1.0976297E0,3.0423602E-1,-2.5037572E-1,-9.935105E-1,-1.6333085E0,-1.8481909E-1,2.071361E0,8.520673E-2,1.4289469E0,-1.2556971E0,-1.3926704E-2,3.434924E-1,-1.7186432E0,-1.206613E0,-6.673759E-1,-2.332544E-4,-4.1571736E-1,6.317082E-1,1.8702304E0,9.0349483E-1,-1.5597463E-2,-1.5245263E-1,-6.267485E-2,-1.1928853E-1,1.7153775E-2,-3.5678502E-2,-1.076373E-2,4.9612362E-2,1.8741434E-2,-1.0636808E-1,1.3298981E-1,2.9536432E-2,-7.178267E-2,1.3957405E-1,1.388996E-1,-1.7025769E-2,-4.6420563E-2,2.8691837E-3,-1.9563047E-2,-6.8956666E-2,-2.9699286E-2,1.3474889E-2,2.726659E-2,-8.078185E-4,1.3498264E-2,1.232393E-1,-3.57924E-2,-1.3073246E-1],"split_indices":[4,9,1,1,4,9,4,1,9,3,5,2,4,4,1,4,2,2,0,1,5,0,6,2,9,4,9,9,9,4,9,0,0,0,0,0,0,0,0,0,0,0,0,0,0,0,0,0,0,0,0,0,0,0,0,0,0,0,0],"split_type":[0,0,0,0,0,0,0,0,0,0,0,0,0,0,0,0,0,0,0,0,0,0,0,0,0,0,0,0,0,0,0,0,0,0,0,0,0,0,0,0,0,0,0,0,0,0,0,0,0,0,0,0,0,0,0,0,0,0,0],"sum_hessian":[3.738E3,4.64E2,3.274E3,2.21E2,2.43E2,6.14E2,2.66E3,2.04E2,1.7E1,2.31E2,1.2E1,5.7E1,5.57E2,2.558E3,1.02E2,4.4E1,1.6E2,1.6E1,1E0,2.2E2,1.1E1,1E0,1.1E1,3.2E1,2.5E1,1.96E2,3.61E2,8.36E2,1.722E3,1E1,9.2E1,4E0,4E1,8.1E1,7.9E1,1.2E1,4E0,2.1E2,1E1,2E0,9E0,8E0,3E0,1E0,3.1E1,3E0,2.2E1,3.3E1,1.63E2,1.56E2,2.05E2,2.57E2,5.79E2,1.495E3,2.27E2,4E0,6E0,7.5E1,1.7E1],"tree_param":{"num_deleted":"0","num_feature":"10","num_nodes":"59","size_leaf_vector":"1"}},{"base_weights":[6.4518754E-3,-4.3332323E-1,7.603886E-2,-1.6710731E-1,-6.191174E-1,1.0340406E-1,-7.796104E-1,-3.2946283E-1,5.060834E-2,-7.406402E-1,-2.511996E-1,-2.1600549E-1,1.6934256E-1,-9.0436774E-1,5.135421E-2,6.903537E-2,-3.702288E-1,-3.334358E-2,7.4726395E-2,-1.645759E-1,-7.960388E-1,2.3736258E-1,-5.252515E-1,-6.06037E-1,9.622104E-2,4.4576436E-2,2.5182447E-1,-5.939092E-1,-1.1118697E0,-4.218354E-1,4.5897584E-2,-5.881477E-3,-5.2518178E-2,-1.6980946E-2,8.75483E-4,2.7134556E-3,1.2870687E-2,4.9035037E-3,-4.0445145E-2,-3.3544954E-2,-8.824574E-2,-5.7367967E-3,5.3619083E-2,5.442485E-2,-7.1645975E-2,2.6289603E-2,-7.278646E-2,-1.8512541E-2,2.6907116E-2,-6.522105E-3,1.8616749E-2,2.9501412E-2,-9.365053E-3,1.022839E-3,-7.884616E-2,-1.6484682E-1,-9.044941E-2,3.1398244E-2,-7.78959E-2],"categories":[],"categories_nodes":[],"categories_segments":[],"categories_sizes":[],"default_left":[0,0,0,0,0,0,0,0,0,0,0,0,0,0,0,0,0,0,0,0,0,0,0,0,0,0,0,0,0,0,0,0,0,0,0,0,0,0,0,0,0,0,0,0,0,0,0,0,0,0,0,0,0,0,0,0,0,0,0],"id":1,"left_children":[1,3,5,7,9,11,13,15,17,19,21,23,25,27,29,-1,31,33,35,37,39,41,43,45,47,49,51,53,55,57,-1,-1,-1,-1,-1,-1,-1,-1,-1,-1,-1,-1,-1,-1,-1,-1,-1,-1,-1,-1,-1,-1,-1,-1,-1,-1,-1,-1,-1],"loss_changes":[1.1424195E2,2.5121834E1,7.5547195E1,7.4749613E0,1.3227081E1,6.583235E1,1.04133415E1,5.2860193E0,1.8674454E-1,7.0494385E0,1.0300421E1,6.520964E1,2.6642334E1,4.9442596E0,2.8939645E0,0E0,5.614893E0,1.22131586E-1,1.7890874E-1,1.0958731E0,7.8637085E0,2.4968271E0,1.0410298E1,2.5386032E1,1.4541782E1,1.6055965E1,2.3289368E1,4.3569117E0,4.18412E0,2.084025E0,0E0,0E0,0E0,0E0,0E0,0E0,0E0,0E0,0E0,0E0,0E0,0E0,0E0,0E0,0E0,0E0,0E0,0E0,0E0,0E0,0E0,0E0,0E0,0E0,0E0,0E0,0E0,0E0,0E0],"parents":[2147483647,0,0,1,1,2,2,3,3,4,4,5,5,6,6,7,7,8,8,9,9,10,10,11,11,12,12,13,13,14,14,16,16,17,17,18,18,19,19,20,20,21,21,22,22,23,23,24,24,25,25,26,26,27,27,28,28,29,29],"right_children":[2,4,6,8,10,12,14,16,18,20,22,24,26,28,30,-1,32,34,36,38,40,42,44,46,48,50,52,54,56,58,-1,-1,-1,-1,-1,-1,-1,-1,-1,-1,-1,-1,-1,-1,-1,-1,-1,-1,-1,-1,-1,-1,-1,-1,-1,-1,-1,-1,-1],"split_conditions":[-1.0520179E0,-4.5426476E-1,1.7371607E0,9.3836284E-1,7.391932E-1,-2.7138267E0,5.0341554E0,-1.6461035E0,-4.7060564E-1,-2.0009236E0,1.7859045E-1,-1.9273143E-1,-8.9179024E-2,-1.4016857E0,-5.5289435E-1,6.903537E-2,-2.301163E-2,1.3056544E0,-1.624949E0,4.0288392E-2,-1.7186432E0,3.064752E-1,-9.0834165E-1,-1.771073E0,-5.1015778E0,8.2479906E-1,8.7022686E-1,9.9400336E-1,1.4918997E0,5.4066086E0,4.5897584E-2,-5.881477E-3,-5.2518178E-2,-1.6980946E-2,8.75483E-4,2.7134556E-3,1.2870687E-2,4.9035037E-3,-4.0445145E-2,-3.3544954E-2,-8.824574E-2,-5.7367967E-3,5.3619083E-2,5.442485E-2,-7.1645975E-2,2.6289603E-2,-7.278646E-2,-1.8512541E-2,2.6907116E-2,-6.522105E-3,1.8616749E-2,2.9501412E-2,-9.365053E-3,1.022839E-3,-7.884616E-2,-1.6484682E-1,-9.044941E-2,3.1398244E-2,-7.78959E-2],"split_indices":[4,3,7,7,1,1,1,8,8,4,2,7,4,2,5,0,7,7,3,3,2,3,5,2,1,1,7,4,1,1,0,0,0,0,0,0,0,0,0,0,0,0,0,0,0,0,0,0,0,0,0,0,0,0,0,0,0,0,0],"split_type":[0,0,0,0,0,0,0,0,0,0,0,0,0,0,0,0,0,0,0,0,0,0,0,0,0,0,0,0,0,0,0,0,0,0,0,0,0,0,0,0,0,0,0,0,0,0,0,0,0,0,0,0,0,0,0,0,0,0,0],"sum_hessian":[3.731E3,5.09E2,3.222E3,2.1E2,2.99E2,3.123E3,9.9E1,1.2E2,9E1,2.24E2,7.5E1,5.34E2,2.589E3,8.6E1,1.3E1,4E0,1.16E2,2E1,7E1,2E1,2.04E2,2.7E1,4.8E1,2.37E2,2.97E2,1.031E3,1.558E3,3.6E1,5E1,6E0,7E0,3.9E1,7.7E1,4E0,1.6E1,3.8E1,3.2E1,1.1E1,9E0,3.3E1,1.71E2,1.4E1,1.3E1,7E0,4.1E1,2.9E1,2.08E2,1.13E2,1.84E2,5.81E2,4.5E2,1.385E3,1.73E2,9E0,2.7E1,1.2E1,3.8E1,2E0,4E0],"tree_param":{"num_deleted":"0","num_feature":"10","num_nodes":"59","size_leaf_vector":"1"}},{"base_weights":[-3.6624735E-3,-3.8692254E-1,5.433734E-2,-7.6869065E-1,-7.619467E-2,8.240653E-2,-6.647212E-1,-9.289534E-1,-2.884746E-1,-5.8970845E-1,-3.5620272E-2,-2.1806978E-1,1.4302063E-1,-1.3122109E0,-4.944993E-1,-1.0846311E0,-6.766444E-1,9.3595125E-2,-5.691797E-1,-8.3305824E-1,-2.6305285E-1,3.222322E-1,-9.591671E-2,-5.040298E-1,1.390926E-1,1.7349662E-1,-1.6004945E-1,2.6620073E-2,-1.4610381E0,1.0832833E-1,-6.484851E-1,-1.18514456E-1,-4.2934448E-2,-1.11336365E-1,-4.005819E-2,-1.0024107E-2,3.1193776E-2,-7.334814E-2,1.4586697E-2,-2.3114137E-2,-1.296132E-1,-5.8435895E-2,-4.1870396E-3,-5.5040654E-2,3.8782317E-2,-1.601843E-2,3.482009E-2,1.7419802E-2,-6.084419E-2,8.544334E-2,6.8901638E-3,6.1271503E-3,2.5041444E-2,-3.7579723E-2,3.4874142E-3,-1.7153011E-1,-8.7492876E-2,-4.98819E-2,2.3723174E-2,-8.177579E-2,1.2826261E-2],"categories":[],"categories_nodes":[],"categories_segments":[],"categories_sizes":[],"default_left":[0,0,0,0,0,0,0,0,0,0,0,0,0,0,0,0,0,0,0,0,0,0,0,0,0,0,0,0,0,0,0,0,0,0,0,0,0,0,0,0,0,0,0,0,0,0,0,0,0,0,0,0,0,0,0,0,0,0,0,0,0],"id":2,"left_children":[1,3,5,7,9,11,13,15,17,19,21,23,25,27,29,31,33,35,37,39,41,43,45,47,49,51,53,-1,55,57,59,-1,-1,-1,-1,-1,-1,-1,-1,-1,-1,-1,-1,-1,-1,-1,-1,-1,-1,-1,-1,-1,-1,-1,-1,-1,-1,-1,-1,-1,-1],"loss_changes":[8.3713264E1,5.8661293E1,6.607463E1,1.6817322E1,5.6879244E0,5.7384247E1,1.2907795E1,5.786377E0,6.166461E0,1.3706923E0,5.533101E0,5.409908E1,2.4236267E1,6.261692E0,9.260113E0,6.1435394E0,7.5110874E0,1.0893366E0,3.983943E0,2.766461E0,6.8620527E-1,2.3312373E0,6.3065543E0,2.092566E1,1.1790797E1,2.054634E1,1.0106146E1,0E0,1.9268303E0,1.7618662E0,1.0491985E1,0E0,0E0,0E0,0E0,0E0,0E0,0E0,0E0,0E0,0E0,0E0,0E0,0E0,0E0,0E0,0E0,0E0,0E0,0E0,0E0,0E0,0E0,0E0,0E0,0E0,0E0,0E0,0E0,0E0,0E0],"parents":[2147483647,0,0,1,1,2,2,3,3,4,4,5,5,6,6,7,7,8,8,9,9,10,10,11,11,12,12,13,13,14,14,15,15,16,16,17,17,18,18,19,19,20,20,21,21,22,22,23,23,24,24,25,25,26,26,28,28,29,29,30,30],"right_children":[2,4,6,8,10,12,14,16,18,20,22,24,26,28,30,32,34,36,38,40,42,44,46,48,50,52,54,-1,56,58,60,-1,-1,-1,-1,-1,-1,-1,-1,-1,-1,-1,-1,-1,-1,-1,-1,-1,-1,-1,-1,-1,-1,-1,-1,-1,-1,-1,-1,-1,-1],"split_conditions":[-1.0520179E0,-3.7797284E-1,1.6828957E0,7.173444E-1,-2.1315928E0,-2.6707616E0,-4.3059084E-1,3.5150456E-1,4.432653E-2,1.2912048E-1,-2.748397E-1,-1.5281966E-2,8.4872717E-1,-2.5180745E0,4.0629578E-1,7.959801E-1,-1.7097964E0,4.1383675E-1,2.096097E0,-1.6333085E0,-1.3439693E0,-2.877112E0,-1.1670773E0,-1.7186432E0,-8.6973E-1,-1.1600657E-1,2.0342505E0,2.6620073E-2,1.6471891E-1,-2.0332704E-1,5.0341554E0,-1.18514456E-1,-4.2934448E-2,-1.11336365E-1,-4.005819E-2,-1.0024107E-2,3.1193776E-2,-7.334814E-2,1.4586697E-2,-2.3114137E-2,-1.296132E-1,-5.8435895E-2,-4.1870396E-3,-5.5040654E-2,3.8782317E-2,-1.601843E-2,3.482009E-2,1.7419802E-2,-6.084419E-2,8.544334E-2,6.8901638E-3,6.1271503E-3,2.5041444E-2,-3.7579723E-2,3.4874142E-3,-1.7153011E-1,-8.7492876E-2,-4.98819E-2,2.3723174E-2,-8.177579E-2,1.2826261E-2],"split_indices":[4,9,7,1,2,1,9,7,2,9,7,7,7,2,4,8,1,7,1,4,4,1,4,2,9,4,1,0,4,9,1,0,0,0,0,0,0,0,0,0,0,0,0,0,0,0,0,0,0,0,0,0,0,0,0,0,0,0,0,0,0],"split_type":[0,0,0,0,0,0,0,0,0,0,0,0,0,0,0,0,0,0,0,0,0,0,0,0,0,0,0,0,0,0,0,0,0,0,0,0,0,0,0,0,0,0,0,0,0,0,0,0,0,0,0,0,0,0,0,0,0,0,0,0,0],"sum_hessian":[3.764E3,4.94E2,3.27E3,2.21E2,2.73E2,3.148E3,1.22E2,1.65E2,5.6E1,1.9E1,2.54E2,5.28E2,2.62E3,2.4E1,9.8E1,1E2,6.5E1,2.4E1,3.2E1,1E1,9E0,3.6E1,2.18E2,2.93E2,2.35E2,2.381E3,2.39E2,2E0,2.2E1,2E1,7.8E1,8.6E1,1.4E1,2.4E1,4.1E1,1.3E1,1.1E1,2.6E1,6E0,5E0,5E0,3E0,6E0,2E0,3.4E1,1.91E2,2.7E1,3.9E1,2.54E2,2E1,2.15E2,9.69E2,1.412E3,1.13E2,1.26E2,1.4E1,8E0,3E0,1.7E1,6.4E1,1.4E1],"tree_param":{"num_deleted":"0","num_feature":"10","num_nodes":"61","size_leaf_vector":"1"}},{"base_weights":[-1.2791854E-3,-3.5971433E-1,4.7633E-2,-6.923388E-1,-3.5612185E-2,-2.0922497E-1,9.6488796E-2,-7.8725654E-1,2.9366571E-2,8.172818E-1,-5.809781E-2,5.0218934E-1,-3.0585885E-1,-5.182758E-1,1.1038968E-1,-5.46808E-1,-9.4228697E-1,-1.0303068E-1,4.223631E-1,3.5863694E-2,9.56945E-2,-1.07544735E-2,-9.824671E-1,7.830994E-1,-5.569966E-1,2.660169E-1,-3.6569074E-1,-8.693475E-1,1.5955223E-1,1.3099343E-1,-2.2202073E-1,-7.2718956E-2,-1.8584264E-2,-9.882035E-2,-3.4297716E-2,1.1195012E-2,-4.6636827E-2,2.1745836E-2,8.258958E-2,1.621776E-2,-7.376898E-3,-1.025396E-1,-2.7658923E-2,-8.519922E-3,9.9695764E-2,-1.846897E-2,-6.417449E-2,7.5023405E-2,2.313713E-3,4.3080725E-2,-4.2295206E-2,-1.05367474E-1,3.8150664E-2,4.8024174E-2,-2.7329937E-2,7.310184E-3,2.2934465E-2,-1.5744567E-3,-1.04663335E-1],"categories":[],"categories_nodes":[],"categories_segments":[],"categories_sizes":[],"default_left":[0,0,0,0,0,0,0,0,0,0,0,0,0,0,0,0,0,0,0,0,0,0,0,0,0,0,0,0,0,0,0,0,0,0,0,0,0,0,0,0,0,0,0,0,0,0,0,0,0,0,0,0,0,0,0,0,0,0,0],"id":3,"left_children":[1,3,5,7,9,11,13,15,17,19,21,23,25,27,29,31,33,35,37,-1,-1,39,41,43,45,47,49,51,53,55,57,-1,-1,-1,-1,-1,-1,-1,-1,-1,-1,-1,-1,-1,-1,-1,-1,-1,-1,-1,-1,-1,-1,-1,-1,-1,-1,-1,-1],"loss_changes":[6.6287506E1,4.8918503E1,4.1770714E1,1.5367706E1,4.4775662E0,3.672686E1,2.3951189E1,6.8655624E0,1.4483713E0,4.1139126E-2,9.87981E0,1.9478483E1,1.6144775E1,1.4892616E1,1.8760834E1,5.0737762E0,2.93573E0,1.6925328E0,3.9920235E-1,0E0,0E0,2.3657653E0,4.971409E-2,9.555273E0,3.232093E-1,5.274936E0,1.9565834E1,9.855202E0,3.1850913E0,1.4650227E1,2.7199188E1,0E0,0E0,0E0,0E0,0E0,0E0,0E0,0E0,0E0,0E0,0E0,0E0,0E0,0E0,0E0,0E0,0E0,0E0,0E0,0E0,0E0,0E0,0E0,0E0,0E0,0E0,0E0,0E0],"parents":[2147483647,0,0,1,1,2,2,3,3,4,4,5,5,6,6,7,7,8,8,9,9,10,10,11,11,12,12,13,13,14,14,15,15,16,16,17,17,18,18,21,21,22,22,23,23,24,24,25,25,26,26,27,27,28,28,29,29,30,30],"right_children":[2,4,6,8,10,12,14,16,18,20,22,24,26,28,30,32,34,36,38,-1,-1,40,42,44,46,48,50,52,54,56,58,-1,-1,-1,-1,-1,-1,-1,-1,-1,-1,-1,-1,-1,-1,-1,-1,-1,-1,-1,-1,-1,-1,-1,-1,-1,-1,-1,-1],"split_conditions":[-1.1409674E0,-1.9698726E-1,-2.7138267E0,1.3509783E0,-9.281021E-1,-6.138219E-1,-1.206613E0,-1.5791662E0,5.6324536E-1,1.5691059E0,1.3526719E0,2.5145488E0,-1.7980613E0,2.172837E0,9.9630076E-1,8.1348217E-1,9.8804235E-1,1.9385536E0,1.6965551E0,3.5863694E-2,9.56945E-2,-4.5277303E-1,2.9480815E0,-2.5242752E-1,-9.513504E0,7.337682E-1,-2.616449E0,3.4251556E-2,-1.24502614E-1,5.3972286E-1,1.4412297E0,-7.2718956E-2,-1.8584264E-2,-9.882035E-2,-3.4297716E-2,1.1195012E-2,-4.6636827E-2,2.1745836E-2,8.258958E-2,1.621776E-2,-7.376898E-3,-1.025396E-1,-2.7658923E-2,-8.519922E-3,9.9695764E-2,-1.846897E-2,-6.417449E-2,7.5023405E-2,2.313713E-3,4.3080725E-2,-4.2295206E-2,-1.05367474E-1,3.8150664E-2,4.8024174E-2,-2.7329937E-2,7.310184E-3,2.2934465E-2,-1.5744567E-3,-1.04663335E-1],"split_indices":[4,9,1,1,5,9,9,4,8,3,3,4,2,1,9,3,8,2,2,0,0,5,3,3,1,9,3,4,4,3,4,0,0,0,0,0,0,0,0,0,0,0,0,0,0,0,0,0,0,0,0,0,0,0,0,0,0,0,0],"split_type":[0,0,0,0,0,0,0,0,0,0,0,0,0,0,0,0,0,0,0,0,0,0,0,0,0,0,0,0,0,0,0,0,0,0,0,0,0,0,0,0,0,0,0,0,0,0,0,0,0,0,0,0,0,0,0,0,0,0,0],"sum_hessian":[3.779E3,4.53E2,3.326E3,2.23E2,2.3E2,5.31E2,2.795E3,1.97E2,2.6E1,5E0,2.25E2,6.3E1,4.68E2,6.1E1,2.734E3,7.9E1,1.18E2,2E1,6E0,2E0,3E0,2.15E2,1E1,5E1,1.3E1,4.4E1,4.24E2,4E1,2.1E1,2.575E3,1.59E2,5.2E1,2.7E1,1.09E2,9E0,1.3E1,7E0,5E0,1E0,5.7E1,1.58E2,9E0,1E0,1E1,4E1,3E0,1E1,1.4E1,3E1,2.8E1,3.96E2,3.5E1,5E0,1.2E1,9E0,1.622E3,9.53E2,1.28E2,3.1E1],"tree_param":{"num_deleted":"0","num_feature":"10","num_nodes":"59","size_leaf_vector":"1"}},{"base_weights":[9.358455E-3,-6.142287E-1,7.0952743E-1,-1.2927402E0,-2.294518E-1,3.6081246E-1,1.156962E0,-1.5434015E0,-1.0467525E0,-4.14514E-1,-9.559685E-2,1.8190357E-1,5.1878667E-1,9.594959E-1,1.5139385E0,-1.3245625E0,-1.6523019E0,-1.123126E0,-8.5067534E-1,-5.733833E-1,-3.3074248E-1,-1.775899E-1,-4.6442386E-2,1.314727E-1,3.0352408E-1,4.479123E-1,6.045178E-1,8.470549E-2,1.1136136E0,1.392637E0,1.6832305E-1,-1.4453624E-1,-1.1542243E-1,-1.6632831E-1,-6.0780972E-2,-1.2117267E-1,-9.7077146E-2,-3.511671E-2,-8.768722E-2,-3.6268223E-2,-6.4772405E-2,-3.175632E-2,-6.2624566E-2,-2.1471705E-2,-1.5108712E-2,-3.5118859E-3,-1.564909E-2,2.6070332E-2,9.867447E-3,3.1249616E-2,-7.292138E-3,4.561517E-2,-1.1955471E-2,5.8358278E-2,8.140053E-2,1.1405163E-1,8.900278E-2,1.4259718E-1,1.03933096E-1],"categories":[],"categories_nodes":[],"categories_segments":[],"categories_sizes":[],"default_left":[0,0,0,0,0,0,0,0,0,0,0,0,0,0,0,0,0,0,0,0,0,0,0,0,0,0,0,0,0,0,0,0,0,0,0,0,0,0,0,0,0,0,0,0,0,0,0,0,0,0,0,0,0,0,0,0,0,0,0],"id":4,"left_children":[1,3,5,7,9,11,13,15,17,19,21,23,25,27,29,31,33,35,37,39,41,43,45,47,49,51,53,-1,55,57,-1,-1,-1,-1,-1,-1,-1,-1,-1,-1,-1,-1,-1,-1,-1,-1,-1,-1,-1,-1,-1,-1,-1,-1,-1,-1,-1,-1,-1],"loss_changes":[1.6451698E3,5.20027E2,2.7653082E2,4.2841064E1,3.1494492E1,2.8140366E1,5.3318726E1,6.2716064E0,4.540436E0,6.917206E0,2.9741917E0,2.8428068E0,2.949585E0,7.7732544E0,3.3031006E0,8.6268616E-1,1.661499E0,2.3468628E0,1.0922241E0,2.6315346E0,1.1720009E0,2.4011898E-1,5.7271194E-1,1.3899455E0,4.8550415E-1,1.4291534E0,5.6435394E-1,0E0,2.4206543E-1,4.7299194E-1,0E0,0E0,0E0,0E0,0E0,0E0,0E0,0E0,0E0,0E0,0E0,0E0,0E0,0E0,0E0,0E0,0E0,0E0,0E0,0E0,0E0,0E0,0E0,0E0,0E0,0E0,0E0,0E0,0E0],"parents":[2147483647,0,0,1,1,2,2,3,3,4,4,5,5,6,6,7,7,8,8,9,9,10,10,11,11,12,12,13,13,14,14,15,15,16,16,17,17,18,18,19,19,20,20,21,21,22,22,23,23,24,24,25,25,26,26,28,28,29,29],"right_children":[2,4,6,8,10,12,14,16,18,20,22,24,26,28,30,32,34,36,38,40,42,44,46,48,50,52,54,-1,56,58,-1,-1,-1,-1,-1,-1,-1,-1,-1,-1,-1,-1,-1,-1,-1,-1,-1,-1,-1,-1,-1,-1,-1,-1,-1,-1,-1,-1,-1],"split_conditions":[-5.3418535E-1,-3.3626792E0,1.6382141E0,-5.5751314E0,-1.6623551E0,4.2954284E-1,3.5112195E0,-1.0748581E0,-5.514134E-2,-2.568679E0,-1.1220628E0,7.1636744E-2,1.0912753E0,2.5308316E0,4.745657E0,-6.5915565E0,2.255315E0,-4.316917E0,-1.4697757E0,-1.3218178E0,2.5145488E0,-1.3930709E0,1.2895632E0,-1.0923197E0,1.8702304E0,1.4757893E0,1.2558811E0,8.470549E-2,1.9831579E0,5.9580386E-1,1.6832305E-1,-1.4453624E-1,-1.1542243E-1,-1.6632831E-1,-6.0780972E-2,-1.2117267E-1,-9.7077146E-2,-3.511671E-2,-8.768722E-2,-3.6268223E-2,-6.4772405E-2,-3.175632E-2,-6.2624566E-2,-2.1471705E-2,-1.5108712E-2,-3.5118859E-3,-1.564909E-2,2.6070332E-2,9.867447E-3,3.1249616E-2,-7.292138E-3,4.561517E-2,-1.1955471E-2,5.8358278E-2,8.140053E-2,1.1405163E-1,8.900278E-2,1.4259718E-1,1.03933096E-1],"split_indices":[0,0,0,0,0,0,0,4,7,0,0,0,0,0,0,0,4,0,4,4,4,0,4,2,4,4,7,0,2,7,0,0,0,0,0,0,0,0,0,0,0,0,0,0,0,0,0,0,0,0,0,0,0,0,0,0,0,0,0],"split_type":[0,0,0,0,0,0,0,0,0,0,0,0,0,0,0,0,0,0,0,0,0,0,0,0,0,0,0,0,0,0,0,0,0,0,0,0,0,0,0,0,0,0,0,0,0,0,0,0,0,0,0,0,0,0,0,0,0,0,0],"sum_hessian":[3.766E3,1.992E3,1.774E3,7.2E2,1.272E3,9.98E2,7.76E2,3.54E2,3.66E2,5.33E2,7.39E2,4.69E2,5.29E2,5.02E2,2.74E2,1.22E2,2.32E2,2.6E2,1.06E2,1.82E2,3.51E2,2.76E2,4.63E2,3.33E2,1.36E2,2.93E2,2.36E2,2.94E2,2.08E2,1.65E2,1.09E2,6.7E1,5.5E1,2.29E2,3E0,1.6E2,1E2,6E0,1E2,4.9E1,1.33E2,3.38E2,1.3E1,1.12E2,1.64E2,4.21E2,4.2E1,6.6E1,2.67E2,1.33E2,3E0,2.89E2,4E0,2.18E2,1.8E1,1.82E2,2.6E1,1.48E2,1.7E1],"tree_param":{"num_deleted":"0","num_feature":"10","num_nodes":"59","size_leaf_vector":"1"}},{"base_weights":[-5.5002123E-3,-7.79441E-2,1.0893815E-1,-1.5677577E-1,8.251132E-2,2.026184E-1,-2.0467187E-1,-6.4592546E-1,-1.24035545E-1,3.0035132E-1,1.3636784E-2,3.4307474E-1,7.2362505E-2,-1.3334888E-1,-5.679398E-1,2.747079E-1,-8.8861865E-1,-3.0150113E-1,-8.294236E-2,2.3316394E-1,6.9709194E-1,3.7703753E-2,-8.953993E-1,2.284903E-1,5.2454907E-1,1.9146053E-2,4.986183E-1,5.5887304E-2,-2.8557593E-1,-9.6500057E-1,-2.5239614E-1,-4.9669255E-2,6.9588624E-2,1.25051215E-2,-9.6074924E-2,-4.585389E-2,1.7866477E-2,-9.310212E-3,5.792278E-2,4.6637803E-3,4.14444E-2,7.5805716E-2,-4.135185E-2,2.2757675E-2,-8.189363E-3,-1.08061746E-1,2.0567892E-2,1.6790716E-2,6.345783E-2,5.5809762E-2,-5.2329388E-2,-4.371631E-2,5.2838014E-3,5.8280405E-2,-6.281713E-2,-4.1210454E-2,2.4555556E-2,-9.088437E-3,-3.7306666E-2,-6.0077417E-3,-1.0914145E-1,1.5854945E-2,-5.0689097E-2],"categories":[],"categories_nodes":[],"categories_segments":[],"categories_sizes":[],"default_left":[0,0,0,0,0,0,0,0,0,0,0,0,0,0,0,0,0,0,0,0,0,0,0,0,0,0,0,0,0,0,0,0,0,0,0,0,0,0,0,0,0,0,0,0,0,0,0,0,0,0,0,0,0,0,0,0,0,0,0,0,0,0,0],"id":5,"left_children":[1,3,5,7,9,11,13,15,17,19,21,23,25,27,29,31,33,35,37,39,41,43,45,47,49,51,53,55,57,59,61,-1,-1,-1,-1,-1,-1,-1,-1,-1,-1,-1,-1,-1,-1,-1,-1,-1,-1,-1,-1,-1,-1,-1,-1,-1,-1,-1,-1,-1,-1,-1,-1],"loss_changes":[3.1288023E1,2.9244701E1,4.302304E1,2.4742939E1,1.1428671E1,2.059394E1,8.655719E0,2.1916962E1,1.0578468E1,4.7155056E0,1.2722851E1,1.1150562E1,1.32831745E1,8.168303E0,6.6473885E0,7.168481E0,5.7501183E0,2.0667265E1,8.005821E0,5.3231993E0,2.0738916E0,1.2871542E1,3.281354E0,8.110544E0,7.6391525E0,8.048301E0,6.531973E0,1.1374121E1,2.6403866E0,2.6799088E0,3.4270396E0,0E0,0E0,0E0,0E0,0E0,0E0,0E0,0E0,0E0,0E0,0E0,0E0,0E0,0E0,0E0,0E0,0E0,0E0,0E0,0E0,0E0,0E0,0E0,0E0,0E0,0E0,0E0,0E0,0E0,0E0,0E0,0E0],"parents":[2147483647,0,0,1,1,2,2,3,3,4,4,5,5,6,6,7,7,8,8,9,9,10,10,11,11,12,12,13,13,14,14,15,15,16,16,17,17,18,18,19,19,20,20,21,21,22,22,23,23,24,24,25,25,26,26,27,27,28,28,29,29,30,30],"right_children":[2,4,6,8,10,12,14,16,18,20,22,24,26,28,30,32,34,36,38,40,42,44,46,48,50,52,54,56,58,60,62,-1,-1,-1,-1,-1,-1,-1,-1,-1,-1,-1,-1,-1,-1,-1,-1,-1,-1,-1,-1,-1,-1,-1,-1,-1,-1,-1,-1,-1,-1,-1,-1],"split_conditions":[8.3587664E-1,6.55199E-1,6.96412E-1,-9.318668E-1,-1.2310163E0,-4.717852E-3,1.5231466E0,-9.716266E-1,-3.5901752E0,1.988961E0,9.9630076E-1,6.4004146E-2,4.2717276E0,1.2783322E0,2.5149407E0,-1.5375099E-1,-7.5330484E-1,6.777689E-1,1.7245095E0,-8.8535744E-1,-2.0140858E-1,-3.9513937E-1,9.652832E-1,3.7097132E0,2.2080858E0,-1.1659138E0,5.1066357E-1,-5.6606036E-1,-1.5211561E0,-2.0652514E0,3.286492E-1,-4.9669255E-2,6.9588624E-2,1.25051215E-2,-9.6074924E-2,-4.585389E-2,1.7866477E-2,-9.310212E-3,5.792278E-2,4.6637803E-3,4.14444E-2,7.5805716E-2,-4.135185E-2,2.2757675E-2,-8.189363E-3,-1.08061746E-1,2.0567892E-2,1.6790716E-2,6.345783E-2,5.5809762E-2,-5.2329388E-2,-4.371631E-2,5.2838014E-3,5.8280405E-2,-6.281713E-2,-4.1210454E-2,2.4555556E-2,-9.088437E-3,-3.7306666E-2,-6.0077417E-3,-1.0914145E-1,1.5854945E-2,-5.0689097E-2],"split_indices":[1,3,7,9,2,2,3,1,1,3,9,3,1,7,1,2,7,7,8,1,1,7,8,1,3,9,7,9,2,2,9,0,0,0,0,0,0,0,0,0,0,0,0,0,0,0,0,0,0,0,0,0,0,0,0,0,0,0,0,0,0,0,0],"split_type":[0,0,0,0,0,0,0,0,0,0,0,0,0,0,0,0,0,0,0,0,0,0,0,0,0,0,0,0,0,0,0,0,0,0,0,0,0,0,0,0,0,0,0,0,0,0,0,0,0,0,0,0,0,0,0,0,0,0,0,0,0,0,0],"sum_hessian":[3.772E3,2.31E3,1.462E3,1.549E3,7.61E2,1.126E3,3.36E2,9.6E1,1.453E3,1.82E2,5.79E2,5.41E2,5.85E2,2.82E2,5.4E1,2E1,7.6E1,2.72E2,1.181E3,1.57E2,2.5E1,5.65E2,1.4E1,3.33E2,2.08E2,5.21E2,6.4E1,1.26E2,1.56E2,2.3E1,3.1E1,7E0,1.3E1,5E0,7.1E1,2.05E2,6.7E1,1.164E3,1.7E1,7.8E1,7.9E1,2.4E1,1E0,2.18E2,3.47E2,1.2E1,2E0,2.91E2,4.2E1,2.02E2,6E0,3.5E1,4.86E2,6E1,4E0,3.6E1,9E1,4.9E1,1.07E2,3E0,2E1,1.2E1,1.9E1],"tree_param":{"num_deleted":"0","num_feature":"10","num_nodes":"63","size_leaf_vector":"1"}},{"base_weights":[3.4696811E-3,-5.625897E-1,6.146365E-1,-1.1512779E0,-2.1733639E-1,3.176922E-1,1.0404154E0,-1.363982E0,-9.281409E-1,-3.7498835E-1,-1.0265706E-1,1.6787936E-1,4.87584E-1,8.8333917E-1,1.4020262E0,-1.1740099E0,-1.4656938E0,-9.752761E-1,-7.2932786E-1,-6.035891E-1,-2.8788942E-1,-1.7042415E-1,-5.6442633E-2,5.9801403E-2,2.4677846E-1,4.243606E-1,5.633075E-1,7.753687E-1,1.0353185E0,1.3200724E0,1.6461419E-1,-1.2828147E-1,-1.0476827E-1,-1.4776483E-1,-6.2025912E-2,-1.0803218E-1,-8.595125E-2,-8.680325E-2,-6.0328215E-2,-6.646646E-2,-4.3123014E-2,-3.320333E-2,-2.4408368E-2,-1.9996773E-2,-1.3618625E-2,-9.774332E-3,3.628574E-3,6.9490015E-6,1.5485789E-2,1.9570017E-2,3.4760825E-2,-1.2672551E-2,4.329307E-2,5.0038904E-2,6.816337E-2,7.109621E-2,8.31253E-2,8.5654326E-2,1.0794329E-1,1.3233052E-1,3.8363133E-2],"categories":[],"categories_nodes":[],"categories_segments":[],"categories_sizes":[],"default_left":[0,0,0,0,0,0,0,0,0,0,0,0,0,0,0,0,0,0,0,0,0,0,0,0,0,0,0,0,0,0,0,0,0,0,0,0,0,0,0,0,0,0,0,0,0,0,0,0,0,0,0,0,0,0,0,0,0,0,0,0,0],"id":6,"left_children":[1,3,5,7,9,11,13,15,17,19,21,23,25,27,29,31,33,35,37,39,41,43,45,47,49,51,53,55,57,59,-1,-1,-1,-1,-1,-1,-1,-1,-1,-1,-1,-1,-1,-1,-1,-1,-1,-1,-1,-1,-1,-1,-1,-1,-1,-1,-1,-1,-1,-1,-1],"loss_changes":[1.300105E3,3.962838E2,2.2813324E2,3.2954285E1,2.2217266E1,2.704995E1,4.090741E1,5.3705444E0,2.615448E0,1.0140076E1,2.226499E0,4.828722E0,2.1499176E0,7.7300415E0,2.28833E0,4.8410034E-1,1.4585571E0,2.5250244E0,7.3511887E-1,1.2081985E0,6.4798164E-1,2.650938E-1,1.6350185E0,1.3683647E0,1.6212425E0,1.3583717E0,1.3265839E0,5.175934E-1,7.552643E-1,1.3031006E-2,0E0,0E0,0E0,0E0,0E0,0E0,0E0,0E0,0E0,0E0,0E0,0E0,0E0,0E0,0E0,0E0,0E0,0E0,0E0,0E0,0E0,0E0,0E0,0E0,0E0,0E0,0E0,0E0,0E0,0E0,0E0],"parents":[2147483647,0,0,1,1,2,2,3,3,4,4,5,5,6,6,7,7,8,8,9,9,10,10,11,11,12,12,13,13,14,14,15,15,16,16,17,17,18,18,19,19,20,20,21,21,22,22,23,23,24,24,25,25,26,26,27,27,28,28,29,29],"right_children":[2,4,6,8,10,12,14,16,18,20,22,24,26,28,30,32,34,36,38,40,42,44,46,48,50,52,54,56,58,60,-1,-1,-1,-1,-1,-1,-1,-1,-1,-1,-1,-1,-1,-1,-1,-1,-1,-1,-1,-1,-1,-1,-1,-1,-1,-1,-1,-1,-1,-1,-1],"split_conditions":[-6.137288E-1,-3.4170437E0,1.7327772E0,-5.5003037E0,-1.7058516E0,5.842082E-1,3.7907252E0,-1.0157973E0,1.7315003E0,-1.2517074E0,-1.1220628E0,-7.995151E-1,1.1867106E0,2.7476077E0,5.516414E0,-6.5915565E0,2.255315E0,-4.4812145E0,1.3108431E0,-2.3371506E0,-2.1828082E0,-1.3327575E0,8.6428726E-1,-3.4507822E-2,1.2948117E-1,-8.185764E0,2.4268618E-1,2.4268618E-1,-1.7839472E0,4.7141824E0,1.6461419E-1,-1.2828147E-1,-1.0476827E-1,-1.4776483E-1,-6.2025912E-2,-1.0803218E-1,-8.595125E-2,-8.680325E-2,-6.0328215E-2,-6.646646E-2,-4.3123014E-2,-3.320333E-2,-2.4408368E-2,-1.9996773E-2,-1.3618625E-2,-9.774332E-3,3.628574E-3,6.9490015E-6,1.5485789E-2,1.9570017E-2,3.4760825E-2,-1.2672551E-2,4.329307E-2,5.0038904E-2,6.816337E-2,7.109621E-2,8.31253E-2,8.5654326E-2,1.0794329E-1,1.3233052E-1,3.8363133E-2],"split_indices":[0,0,0,0,0,0,0,4,1,1,0,1,0,0,0,0,4,0,4,0,0,0,1,0,0,1,1,1,1,2,0,0,0,0,0,0,0,0,0,0,0,0,0,0,0,0,0,0,0,0,0,0,0,0,0,0,0,0,0,0,0],"split_type":[0,0,0,0,0,0,0,0,0,0,0,0,0,0,0,0,0,0,0,0,0,0,0,0,0,0,0,0,0,0,0,0,0,0,0,0,0,0,0,0,0,0,0,0,0,0,0,0,0,0,0,0,0,0,0,0,0,0,0,0,0],"sum_hessian":[3.756E3,1.95E3,1.806E3,7.2E2,1.23E3,1.065E3,7.41E2,3.66E2,3.54E2,5.17E2,7.13E2,5.67E2,4.98E2,5.19E2,2.22E2,1.32E2,2.34E2,2.83E2,7.1E1,1.41E2,3.76E2,2.88E2,4.25E2,2.4E2,3.27E2,2.75E2,2.23E2,3.07E2,2.12E2,1.71E2,5.1E1,6.6E1,6.6E1,2.3E2,4E0,1.44E2,1.39E2,3.1E1,4E1,1.02E2,3.9E1,1.84E2,1.92E2,1.52E2,1.36E2,2.94E2,1.31E2,1.48E2,9.2E1,2.19E2,1.08E2,4E0,2.71E2,1.49E2,7.4E1,1.49E2,1.58E2,4.6E1,1.66E2,1.7E2,1E0],"tree_param":{"num_deleted":"0","num_feature":"10","num_nodes":"61","size_leaf_vector":"1"}},{"base_weights":[4.6668616E-3,-4.9941203E-1,5.6152487E-1,-1.0432084E0,-1.9260249E-1,2.869955E-1,9.219166E-1,-1.2280873E0,-8.491155E-1,-3.475918E-1,-8.588249E-2,1.2976944E-1,4.0112326E-1,7.4099654E-1,1.1810488E0,-1.0438792E0,-1.3159132E0,-8.8887167E-1,-5.5637014E-1,-4.8786393E-1,-2.7685997E-1,-1.4483315E-1,-3.6166936E-2,1.3873817E-1,-1.4856187E-1,3.113821E-1,4.5941243E-1,6.662545E-2,8.390329E-2,1.0394807E0,1.3241307E-1,-1.13298416E-1,-9.0904154E-2,-1.3316067E-1,-5.943494E-2,-9.573343E-2,-7.5929195E-2,-5.665344E-2,-2.2522535E-2,-2.8455704E-2,-5.5292267E-2,-1.4845465E-2,-3.0202914E-2,-1.824676E-2,-1.2161974E-2,-5.4099513E-3,7.204152E-3,1.0422134E-2,2.0280251E-2,-1.7109705E-2,-7.3779146E-3,3.1708512E-2,-1.0008971E-2,4.301588E-2,5.3263485E-2,1.0576443E-1,6.5218054E-2],"categories":[],"categories_nodes":[],"categories_segments":[],"categories_sizes":[],"default_left":[0,0,0,0,0,0,0,0,0,0,0,0,0,0,0,0,0,0,0,0,0,0,0,0,0,0,0,0,0,0,0,0,0,0,0,0,0,0,0,0,0,0,0,0,0,0,0,0,0,0,0,0,0,0,0,0,0],"id":7,"left_children":[1,3,5,7,9,11,13,15,17,19,21,23,25,27,29,31,33,35,37,39,41,43,45,47,49,51,53,-1,-1,55,-1,-1,-1,-1,-1,-1,-1,-1,-1,-1,-1,-1,-1,-1,-1,-1,-1,-1,-1,-1,-1,-1,-1,-1,-1,-1,-1],"loss_changes":[1.0663804E3,3.3248187E2,1.7831873E2,2.4757568E1,2.1075768E1,1.8358337E1,3.5692932E1,4.5476074E0,3.625473E0,5.0242157E0,2.2133503E0,1.1015E0,2.9641342E0,2.8262634E0,5.085205E0,4.4787598E-1,1.9715881E0,2.0232391E0,2.3866653E-2,2.1309166E0,1.0798473E0,2.800827E-1,8.033653E-1,9.07609E-1,1.0969996E-2,5.878887E-1,5.3772736E-1,0E0,0E0,4.7096252E-1,0E0,0E0,0E0,0E0,0E0,0E0,0E0,0E0,0E0,0E0,0E0,0E0,0E0,0E0,0E0,0E0,0E0,0E0,0E0,0E0,0E0,0E0,0E0,0E0,0E0,0E0,0E0],"parents":[2147483647,0,0,1,1,2,2,3,3,4,4,5,5,6,6,7,7,8,8,9,9,10,10,11,11,12,12,13,13,14,14,15,15,16,16,17,17,18,18,19,19,20,20,21,21,22,22,23,23,24,24,25,25,26,26,29,29],"right_children":[2,4,6,8,10,12,14,16,18,20,22,24,26,28,30,32,34,36,38,40,42,44,46,48,50,52,54,-1,-1,56,-1,-1,-1,-1,-1,-1,-1,-1,-1,-1,-1,-1,-1,-1,-1,-1,-1,-1,-1,-1,-1,-1,-1,-1,-1,-1,-1],"split_conditions":[-5.3418535E-1,-3.4709764E0,1.6382141E0,-5.5003037E0,-1.7058516E0,2.4085593E-1,3.3067174E0,-1.0961174E0,1.5094728E0,-2.6969118E0,-1.0415545E0,2.255315E0,8.231222E-1,2.4216971E0,4.3899794E0,-6.450799E0,2.255315E0,-4.316917E0,-4.2424445E0,-1.3890731E0,-1.0961174E0,-1.3930709E0,6.3408107E-1,-6.372988E-2,5.3049755E-1,1.7975682E0,1.7095026E-1,6.662545E-2,8.390329E-2,1.1005872E0,1.3241307E-1,-1.13298416E-1,-9.0904154E-2,-1.3316067E-1,-5.943494E-2,-9.573343E-2,-7.5929195E-2,-5.665344E-2,-2.2522535E-2,-2.8455704E-2,-5.5292267E-2,-1.4845465E-2,-3.0202914E-2,-1.824676E-2,-1.2161974E-2,-5.4099513E-3,7.204152E-3,1.0422134E-2,2.0280251E-2,-1.7109705E-2,-7.3779146E-3,3.1708512E-2,-1.0008971E-2,4.301588E-2,5.3263485E-2,1.0576443E-1,6.5218054E-2],"split_indices":[0,0,0,0,0,0,0,4,7,0,0,4,0,0,0,0,4,0,0,4,4,0,7,0,7,4,7,0,0,7,0,0,0,0,0,0,0,0,0,0,0,0,0,0,0,0,0,0,0,0,0,0,0,0,0,0,0],"split_type":[0,0,0,0,0,0,0,0,0,0,0,0,0,0,0,0,0,0,0,0,0,0,0,0,0,0,0,0,0,0,0,0,0,0,0,0,0,0,0,0,0,0,0,0,0,0,0,0,0,0,0,0,0,0,0,0,0],"sum_hessian":[3.797E3,1.993E3,1.804E3,7.18E2,1.275E3,1.025E3,7.79E2,3.65E2,3.53E2,5.19E2,7.56E2,4.32E2,5.93E2,4.61E2,3.18E2,1.22E2,2.43E2,3.09E2,4.4E1,1.72E2,3.47E2,3.45E2,4.11E2,4.19E2,1.3E1,2.36E2,3.57E2,2.66E2,1.95E2,1.64E2,1.54E2,6.9E1,5.3E1,2.37E2,6E0,1.98E2,1.11E2,4.2E1,2E0,4.3E1,1.29E2,5.8E1,2.89E2,1.29E2,2.16E2,3.53E2,5.8E1,2.74E2,1.45E2,9E0,4E0,2.33E2,3E0,2.6E2,9.7E1,1.55E2,9E0],"tree_param":{"num_deleted":"0","num_feature":"10","num_nodes":"57","size_leaf_vector":"1"}},{"base_weights":[5.5178567E-3,-4.5943943E-1,4.9077487E-1,-9.319472E-1,-1.7951748E-1,2.661987E-1,8.517439E-1,-1.1022104E0,-7.5573486E-1,-3.0830476E-1,-8.8665E-2,1.4494352E-1,4.1165936E-1,7.204306E-1,1.1340168E0,-9.489947E-1,-1.1904993E0,-7.9867756E-1,-5.682601E-1,-5.018462E-1,-2.322782E-1,-9.967477E-2,8.149928E-2,5.2660026E-2,2.24949E-1,3.6609438E-1,5.083364E-1,6.258018E-1,8.2916373E-1,1.0669445E0,1.3577202E-1,-1.0369586E-1,-8.4030226E-2,-1.2795971E-1,-1.0666782E-1,-8.768335E-2,-7.109772E-2,-6.7846976E-2,-4.575975E-2,-5.482303E-2,-3.6647674E-2,-2.6537437E-2,-1.9439586E-2,-1.547724E-2,-7.4642277E-3,-1.2166385E-2,1.1066542E-2,1.0552639E-4,1.4734201E-2,1.8097753E-2,2.9464526E-2,-1.1056918E-2,3.7044626E-2,4.0919717E-2,5.760355E-2,5.720405E-2,6.718559E-2,6.656632E-2,8.7232105E-2,1.21470235E-1,9.9219956E-2],"categories":[],"categories_nodes":[],"categories_segments":[],"categories_sizes":[],"default_left":[0,0,0,0,0,0,0,0,0,0,0,0,0,0,0,0,0,0,0,0,0,0,0,0,0,0,0,0,0,0,0,0,0,0,0,0,0,0,0,0,0,0,0,0,0,0,0,0,0,0,0,0,0,0,0,0,0,0,0,0,0],"id":8,"left_children":[1,3,5,7,9,11,13,15,17,19,21,23,25,27,29,31,33,35,37,39,41,43,45,47,49,51,53,55,57,59,-1,-1,-1,-1,-1,-1,-1,-1,-1,-1,-1,-1,-1,-1,-1,-1,-1,-1,-1,-1,-1,-1,-1,-1,-1,-1,-1,-1,-1,-1,-1],"loss_changes":[8.5533954E2,2.5589825E2,1.5014896E2,2.076886E1,1.4212345E1,2.0135674E1,2.5537048E1,3.794159E0,2.420227E0,7.284725E0,1.3476539E0,4.6100283E0,2.1045456E0,4.5022736E0,1.9123535E0,4.4805908E-1,1.1394043E0,1.3506165E0,5.4325867E-1,6.8442154E-1,4.035263E-1,9.152913E-1,2.7418524E-1,1.4265685E0,9.7333336E-1,7.815094E-1,8.6499405E-1,2.7179718E-1,9.999237E-1,7.4957275E-1,0E0,0E0,0E0,0E0,0E0,0E0,0E0,0E0,0E0,0E0,0E0,0E0,0E0,0E0,0E0,0E0,0E0,0E0,0E0,0E0,0E0,0E0,0E0,0E0,0E0,0E0,0E0,0E0,0E0,0E0,0E0],"parents":[2147483647,0,0,1,1,2,2,3,3,4,4,5,5,6,6,7,7,8,8,9,9,10,10,11,11,12,12,13,13,14,14,15,15,16,16,17,17,18,18,19,19,20,20,21,21,22,22,23,23,24,24,25,25,26,26,27,27,28,28,29,29],"right_children":[2,4,6,8,10,12,14,16,18,20,22,24,26,28,30,32,34,36,38,40,42,44,46,48,50,52,54,56,58,60,-1,-1,-1,-1,-1,-1,-1,-1,-1,-1,-1,-1,-1,-1,-1,-1,-1,-1,-1,-1,-1,-1,-1,-1,-1,-1,-1,-1,-1,-1,-1],"split_conditions":[-6.393716E-1,-3.4170437E0,1.8267653E0,-5.5003037E0,-1.7577257E0,6.3596725E-1,3.7907252E0,-1.0339752E0,1.76287E0,-1.2799188E0,2.9706392E0,-2.7196676E-1,1.417652E0,2.6418939E0,5.516414E0,-6.5915565E0,-6.7266264E0,-4.4812145E0,-4.682626E0,-2.446401E0,-2.1828082E0,-1.2692945E0,-1.1948484E0,4.1435234E-2,1.2948117E-1,-9.513504E0,-8.577926E-1,3.7030947E-1,-2.0272627E0,-4.759176E-1,1.3577202E-1,-1.0369586E-1,-8.4030226E-2,-1.2795971E-1,-1.0666782E-1,-8.768335E-2,-7.109772E-2,-6.7846976E-2,-4.575975E-2,-5.482303E-2,-3.6647674E-2,-2.6537437E-2,-1.9439586E-2,-1.547724E-2,-7.4642277E-3,-1.2166385E-2,1.1066542E-2,1.0552639E-4,1.4734201E-2,1.8097753E-2,2.9464526E-2,-1.1056918E-2,3.7044626E-2,4.0919717E-2,5.760355E-2,5.720405E-2,6.718559E-2,6.656632E-2,8.7232105E-2,1.21470235E-1,9.9219956E-2],"split_indices":[0,0,0,0,0,0,0,4,1,1,1,1,0,0,0,0,0,0,0,0,0,0,0,0,0,1,1,1,1,4,0,0,0,0,0,0,0,0,0,0,0,0,0,0,0,0,0,0,0,0,0,0,0,0,0,0,0,0,0,0,0],"split_type":[0,0,0,0,0,0,0,0,0,0,0,0,0,0,0,0,0,0,0,0,0,0,0,0,0,0,0,0,0,0,0,0,0,0,0,0,0,0,0,0,0,0,0,0,0,0,0,0,0,0,0,0,0,0,0,0,0,0,0,0,0],"sum_hessian":[3.789E3,1.935E3,1.854E3,7.19E2,1.216E3,1.144E3,7.1E2,3.63E2,3.56E2,5.02E2,7.14E2,6.25E2,5.19E2,4.87E2,2.23E2,1.37E2,2.26E2,2.87E2,6.9E1,1.4E2,3.62E2,6.71E2,4.3E1,2.91E2,3.34E2,3.56E2,1.63E2,2.64E2,2.23E2,1.76E2,4.7E1,7.1E1,6.6E1,1.26E2,1E2,1.47E2,1.4E2,3.2E1,3.7E1,1.02E2,3.8E1,1.9E2,1.72E2,2.08E2,4.63E2,5E0,3.8E1,1.89E2,1.02E2,2.07E2,1.27E2,3E0,3.53E2,6.9E1,9.4E1,1.28E2,1.36E2,5E1,1.73E2,5.4E1,1.22E2],"tree_param":{"num_deleted":"0","num_feature":"10","num_nodes":"61","size_leaf_vector":"1"}},{"base_weights":[-3.0097885E-3,-4.3294916E-1,4.2466235E-1,-8.5580355E-1,-1.7843823E-1,2.1024542E-1,7.4530447E-1,-1.0054543E0,-7.0245653E-1,-3.617793E-1,-1.1815593E-1,7.972008E-2,3.2012138E-1,6.134157E-1,9.874388E-1,-1.1112069E-1,-9.1244215E-1,-7.360416E-1,-4.3624237E-1,-5.17393E-1,-2.4313563E-1,-1.828304E-1,-6.0508188E-2,-1.7810217E-4,1.6054441E-1,2.4662729E-1,3.7366733E-1,5.5020136E-1,7.2752917E-1,8.9387923E-1,1.1100322E-1,-7.546574E-2,-9.6022844E-2,-7.720378E-2,-6.1410557E-2,-4.5686215E-2,-2.3637988E-2,-5.8987767E-2,-4.7360707E-2,-1.771214E-2,-2.8668964E-2,-3.440299E-2,-1.6673824E-2,-8.612021E-3,1.6840646E-3,-4.4364743E-3,4.400989E-3,1.0348538E-2,2.4324542E-2,-8.979287E-3,2.5890121E-2,3.5421338E-2,5.36212E-2,4.9710423E-2,5.995744E-2,5.8212508E-2,7.641457E-2,9.1178074E-2,6.0307957E-2],"categories":[],"categories_nodes":[],"categories_segments":[],"categories_sizes":[],"default_left":[0,0,0,0,0,0,0,0,0,0,0,0,0,0,0,0,0,0,0,0,0,0,0,0,0,0,0,0,0,0,0,0,0,0,0,0,0,0,0,0,0,0,0,0,0,0,0,0,0,0,0,0,0,0,0,0,0,0,0],"id":9,"left_children":[1,3,5,7,9,11,13,15,17,19,21,23,25,27,29,-1,31,33,35,37,39,41,43,45,47,49,51,53,55,57,-1,-1,-1,-1,-1,-1,-1,-1,-1,-1,-1,-1,-1,-1,-1,-1,-1,-1,-1,-1,-1,-1,-1,-1,-1,-1,-1,-1,-1],"loss_changes":[6.950402E2,2.0271301E2,1.3012665E2,1.5541199E1,1.29767685E1,1.6280872E1,2.3632812E1,2.487793E0,2.835022E0,5.246811E0,3.2997017E0,3.364499E0,2.3359337E0,3.1632385E0,2.0587158E0,0E0,7.4565125E-1,8.953247E-1,6.5093994E-2,1.1735535E-1,4.293766E-1,1.0269489E0,9.345293E-1,5.1546496E-1,1.1970072E0,1.1092253E0,9.326248E-1,5.460968E-1,4.7625732E-1,2.622223E-1,0E0,0E0,0E0,0E0,0E0,0E0,0E0,0E0,0E0,0E0,0E0,0E0,0E0,0E0,0E0,0E0,0E0,0E0,0E0,0E0,0E0,0E0,0E0,0E0,0E0,0E0,0E0,0E0,0E0],"parents":[2147483647,0,0,1,1,2,2,3,3,4,4,5,5,6,6,7,7,8,8,9,9,10,10,11,11,12,12,13,13,14,14,16,16,17,17,18,18,19,19,20,20,21,21,22,22,23,23,24,24,25,25,26,26,27,27,28,28,29,29],"right_children":[2,4,6,8,10,12,14,16,18,20,22,24,26,28,30,-1,32,34,36,38,40,42,44,46,48,50,52,54,56,58,-1,-1,-1,-1,-1,-1,-1,-1,-1,-1,-1,-1,-1,-1,-1,-1,-1,-1,-1,-1,-1,-1,-1,-1,-1,-1,-1,-1,-1],"split_conditions":[-7.1710604E-1,-3.570657E0,1.6382141E0,-5.5751314E0,-2.3371506E0,1.8790773E-1,3.5112195E0,-6.9090743E0,1.6289785E0,-1.1243228E0,-1.3094257E0,-4.685687E-1,8.231222E-1,2.6418939E0,4.629364E0,-1.1112069E-1,-8.986908E-1,-4.122543E0,8.096633E-1,-3.2557118E0,-7.4079204E-1,-2.3687694E0,1.3015517E0,1.7380244E-1,1.3865535E-1,-5.8030853E0,2.8999994E0,3.9606434E-1,-1.7839472E0,6.624923E-1,1.1100322E-1,-7.546574E-2,-9.6022844E-2,-7.720378E-2,-6.1410557E-2,-4.5686215E-2,-2.3637988E-2,-5.8987767E-2,-4.7360707E-2,-1.771214E-2,-2.8668964E-2,-3.440299E-2,-1.6673824E-2,-8.612021E-3,1.6840646E-3,-4.4364743E-3,4.400989E-3,1.0348538E-2,2.4324542E-2,-8.979287E-3,2.5890121E-2,3.5421338E-2,5.36212E-2,4.9710423E-2,5.995744E-2,5.8212508E-2,7.641457E-2,9.1178074E-2,6.0307957E-2],"split_indices":[0,0,0,0,0,0,0,0,7,1,0,1,0,0,0,0,9,0,9,0,9,1,1,9,7,1,1,1,1,7,0,0,0,0,0,0,0,0,0,0,0,0,0,0,0,0,0,0,0,0,0,0,0,0,0,0,0,0,0],"split_type":[0,0,0,0,0,0,0,0,0,0,0,0,0,0,0,0,0,0,0,0,0,0,0,0,0,0,0,0,0,0,0,0,0,0,0,0,0,0,0,0,0,0,0,0,0,0,0,0,0,0,0,0,0,0,0,0,0,0,0],"sum_hessian":[3.778E3,1.884E3,1.894E3,7.07E2,1.177E3,1.136E3,7.58E2,3.55E2,3.52E2,2.9E2,8.87E2,5.2E2,6.16E2,4.93E2,2.65E2,1.61E2,1.94E2,3.11E2,4.1E1,1.24E2,1.66E2,4.17E2,4.7E2,2.62E2,2.58E2,2.62E2,3.54E2,3.21E2,1.72E2,1.55E2,1.1E2,4.9E1,1.45E2,2.36E2,7.5E1,3.6E1,5E0,4.2E1,8.2E1,6.8E1,9.8E1,3.6E1,3.81E2,3.53E2,1.17E2,1.31E2,1.31E2,1.54E2,1.04E2,9E0,2.53E2,3.19E2,3.5E1,1.6E2,1.61E2,3.8E1,1.34E2,1.44E2,1.1E1],"tree_param":{"num_deleted":"0","num_feature":"10","num_nodes":"59","size_leaf_vector":"1"}},{"base_weights":[-1.0658471E-3,-3.5574386E-1,4.2341977E-1,-7.589486E-1,-1.3372524E-1,2.5448635E-1,7.3265916E-1,-9.650996E-1,-6.706115E-1,-2.4356005E-1,-4.8381448E-2,1.5555808E-1,3.7986928E-1,6.2715036E-1,9.294336E-1,-8.0334365E-2,-1.02009E0,-7.4819654E-1,-5.697015E-1,-4.0913168E-1,-1.8172911E-1,-6.504077E-2,7.5598754E-2,6.4257905E-2,2.1406229E-1,3.4025478E-1,4.8624825E-1,5.518827E-1,6.927968E-1,8.726613E-1,1.1256661E-1,-1.0711225E-1,-8.974263E-2,-7.719249E-2,-5.1293273E-2,-6.0519207E-2,-3.791244E-2,-4.601778E-2,-2.8575435E-2,-2.5244916E-2,-1.67551E-2,-9.835756E-3,-2.9304053E-3,2.458911E-3,2.031595E-2,8.915704E-3,-1.3731507E-2,1.5906226E-2,2.5425274E-2,4.112087E-2,3.0150443E-2,5.060863E-2,3.5282675E-2,4.7985625E-2,6.0424782E-2,6.262271E-2,7.597693E-2,6.8035856E-2,9.12072E-2],"categories":[],"categories_nodes":[],"categories_segments":[],"categories_sizes":[],"default_left":[0,0,0,0,0,0,0,0,0,0,0,0,0,0,0,0,0,0,0,0,0,0,0,0,0,0,0,0,0,0,0,0,0,0,0,0,0,0,0,0,0,0,0,0,0,0,0,0,0,0,0,0,0,0,0,0,0,0,0],"id":10,"left_children":[1,3,5,7,9,11,13,15,17,19,21,23,25,27,29,-1,31,33,35,37,39,41,43,45,47,49,51,53,55,57,-1,-1,-1,-1,-1,-1,-1,-1,-1,-1,-1,-1,-1,-1,-1,-1,-1,-1,-1,-1,-1,-1,-1,-1,-1,-1,-1,-1,-1],"loss_changes":[5.612718E2,1.8171152E2,8.846631E1,1.2482758E1,1.2277159E1,1.3572807E1,1.185321E1,1.0840302E0,3.550949E0,5.79171E0,1.5312667E0,3.276576E0,1.8741989E0,1.5594788E0,1.3237762E0,0E0,1.5289307E-2,1.1894684E0,1.2923889E0,8.446827E-1,3.7782383E-1,7.7341056E-1,5.6760544E-1,1.2268386E0,7.884865E-1,8.548355E-1,1.6287994E-1,4.191246E-1,4.4262695E-1,6.299515E-1,0E0,0E0,0E0,0E0,0E0,0E0,0E0,0E0,0E0,0E0,0E0,0E0,0E0,0E0,0E0,0E0,0E0,0E0,0E0,0E0,0E0,0E0,0E0,0E0,0E0,0E0,0E0,0E0,0E0],"parents":[2147483647,0,0,1,1,2,2,3,3,4,4,5,5,6,6,7,7,8,8,9,9,10,10,11,11,12,12,13,13,14,14,16,16,17,17,18,18,19,19,20,20,21,21,22,22,23,23,24,24,25,25,26,26,27,27,28,28,29,29],"right_children":[2,4,6,8,10,12,14,16,18,20,22,24,26,28,30,-1,32,34,36,38,40,42,44,46,48,50,52,54,56,58,-1,-1,-1,-1,-1,-1,-1,-1,-1,-1,-1,-1,-1,-1,-1,-1,-1,-1,-1,-1,-1,-1,-1,-1,-1,-1,-1,-1,-1],"split_conditions":[-4.218499E-1,-3.4709764E0,2.1451297E0,-6.450799E0,-1.5650877E0,8.847071E-1,3.8834367E0,-1.1409674E0,-4.8416777E0,-1.2517074E0,2.5149407E0,-7.995151E-1,1.6969714E0,2.8084097E0,5.516414E0,-8.0334365E-2,1.069048E0,1.0342802E0,5.3049755E-1,-2.446401E0,-2.835567E0,-9.1212565E-1,6.3408107E-1,1.3399466E0,1.2948117E-1,-2.0000896E-1,2.1202903E0,-2.4744762E-1,8.882005E-1,-3.0297327E0,1.1256661E-1,-1.0711225E-1,-8.974263E-2,-7.719249E-2,-5.1293273E-2,-6.0519207E-2,-3.791244E-2,-4.601778E-2,-2.8575435E-2,-2.5244916E-2,-1.67551E-2,-9.835756E-3,-2.9304053E-3,2.458911E-3,2.031595E-2,8.915704E-3,-1.3731507E-2,1.5906226E-2,2.5425274E-2,4.112087E-2,3.0150443E-2,5.060863E-2,3.5282675E-2,4.7985625E-2,6.0424782E-2,6.262271E-2,7.597693E-2,6.8035856E-2,9.12072E-2],"split_indices":[0,0,0,0,0,0,0,4,0,1,1,1,1,0,0,0,7,7,7,0,0,0,7,4,0,4,2,1,1,1,0,0,0,0,0,0,0,0,0,0,0,0,0,0,0,0,0,0,0,0,0,0,0,0,0,0,0,0,0],"split_type":[0,0,0,0,0,0,0,0,0,0,0,0,0,0,0,0,0,0,0,0,0,0,0,0,0,0,0,0,0,0,0,0,0,0,0,0,0,0,0,0,0,0,0,0,0,0,0,0,0,0,0,0,0,0,0,0,0,0,0],"sum_hessian":[3.726E3,2.03E3,1.696E3,7.2E2,1.31E3,1.098E3,5.98E2,2.13E2,5.07E2,5.72E2,7.38E2,6.15E2,4.83E2,3.92E2,2.06E2,5.8E1,1.55E2,2.83E2,2.24E2,1.54E2,4.18E2,6.51E2,8.7E1,2.41E2,3.74E2,3.55E2,1.28E2,1.87E2,2.05E2,1.64E2,4.2E1,1.04E2,5.1E1,2.55E2,2.8E1,1.87E2,3.7E1,1.07E2,4.7E1,6.7E1,3.51E2,3.36E2,3.15E2,6.3E1,2.4E1,2.15E2,2.6E1,1.6E2,2.14E2,1.22E2,2.33E2,1.09E2,1.9E1,8.3E1,1.04E2,1.08E2,9.7E1,3.1E1,1.33E2],"tree_param":{"num_deleted":"0","num_feature":"10","num_nodes":"59","size_leaf_vector":"1"}},{"base_weights":[-8.468711E-4,-3.3794066E-1,3.6137584E-1,-6.817423E-1,-1.277971E-1,1.9672485E-1,6.242517E-1,-8.244394E-1,-5.693074E-1,-2.40824E-1,-7.140525E-2,1.0532291E-1,3.011072E-1,5.297996E-1,8.279884E-1,-6.932206E-1,-8.936555E-2,-6.3713557E-1,-4.914101E-1,-3.7783566E-1,-1.8256621E-1,-1.1528273E-1,-4.0244147E-2,2.9976547E-2,1.6393612E-1,2.8270203E-1,4.3750176E-1,4.7069284E-1,6.120199E-1,7.848986E-1,1.0393625E-1,-7.584297E-2,-6.0430598E-2,-4.2726975E-2,-6.656642E-2,-5.2760817E-2,-3.5661217E-2,-1.8726056E-2,-4.056215E-2,-1.194686E-2,-2.0504674E-2,-2.09224E-2,-9.88423E-3,-6.859748E-3,2.3923602E-3,1.0869457E-2,-7.781932E-4,2.4328655E-2,1.43190725E-2,3.419895E-2,2.506578E-2,4.693208E-2,3.2066695E-2,4.5175835E-2,5.8805574E-2,3.8140528E-2,6.2491704E-2,9.1571845E-2,7.391576E-2],"categories":[],"categories_nodes":[],"categories_segments":[],"categories_sizes":[],"default_left":[0,0,0,0,0,0,0,0,0,0,0,0,0,0,0,0,0,0,0,0,0,0,0,0,0,0,0,0,0,0,0,0,0,0,0,0,0,0,0,0,0,0,0,0,0,0,0,0,0,0,0,0,0,0,0,0,0,0,0],"id":11,"left_children":[1,3,5,7,9,11,13,15,17,19,21,23,25,27,29,31,-1,33,35,37,39,41,43,45,47,49,51,53,55,57,-1,-1,-1,-1,-1,-1,-1,-1,-1,-1,-1,-1,-1,-1,-1,-1,-1,-1,-1,-1,-1,-1,-1,-1,-1,-1,-1,-1,-1],"loss_changes":[4.587411E2,1.405069E2,7.82623E1,1.1371216E1,7.6887226E0,1.060622E1,1.2973999E1,2.3141022E0,1.884903E0,3.139782E0,1.1001153E0,2.6271958E0,1.1817055E0,2.0397491E0,1.1788635E0,2.1424866E-1,0E0,1.0267715E0,7.77977E-1,5.5418205E-1,3.7834835E-1,4.96706E-1,8.640223E-1,7.795813E-1,5.166254E-1,7.900963E-1,7.25584E-2,3.6322403E-1,3.475876E-1,4.3613434E-1,0E0,0E0,0E0,0E0,0E0,0E0,0E0,0E0,0E0,0E0,0E0,0E0,0E0,0E0,0E0,0E0,0E0,0E0,0E0,0E0,0E0,0E0,0E0,0E0,0E0,0E0,0E0,0E0,0E0],"parents":[2147483647,0,0,1,1,2,2,3,3,4,4,5,5,6,6,7,7,8,8,9,9,10,10,11,11,12,12,13,13,14,14,15,15,17,17,18,18,19,19,20,20,21,21,22,22,23,23,24,24,25,25,26,26,27,27,28,28,29,29],"right_children":[2,4,6,8,10,12,14,16,18,20,22,24,26,28,30,32,-1,34,36,38,40,42,44,46,48,50,52,54,56,58,-1,-1,-1,-1,-1,-1,-1,-1,-1,-1,-1,-1,-1,-1,-1,-1,-1,-1,-1,-1,-1,-1,-1,-1,-1,-1,-1,-1,-1],"split_conditions":[-5.8921826E-1,-3.4170437E0,1.8769397E0,-5.7328334E0,-1.9565974E0,6.3596725E-1,3.7907252E0,-1.0157973E0,-4.629153E0,-1.2517074E0,-1.1948484E0,-5.884352E-1,2.6921463E0,2.8084097E0,5.962695E0,-6.5915565E0,-8.936555E-2,-1.0520179E0,1.0761616E0,-1.3218178E0,-1.0339752E0,-1.8287654E0,7.391932E-1,-2.5037572E-1,-1.3658878E0,-2.0000896E-1,9.3243027E-1,1.0111978E0,-5.8030853E0,-6.577633E-1,1.0393625E-1,-7.584297E-2,-6.0430598E-2,-4.2726975E-2,-6.656642E-2,-5.2760817E-2,-3.5661217E-2,-1.8726056E-2,-4.056215E-2,-1.194686E-2,-2.0504674E-2,-2.09224E-2,-9.88423E-3,-6.859748E-3,2.3923602E-3,1.0869457E-2,-7.781932E-4,2.4328655E-2,1.43190725E-2,3.419895E-2,2.506578E-2,4.693208E-2,3.2066695E-2,4.5175835E-2,5.8805574E-2,3.8140528E-2,6.2491704E-2,9.1571845E-2,7.391576E-2],"split_indices":[0,0,0,0,0,0,0,4,0,1,0,1,1,0,0,0,0,4,1,4,4,1,1,4,2,4,2,4,1,4,0,0,0,0,0,0,0,0,0,0,0,0,0,0,0,0,0,0,0,0,0,0,0,0,0,0,0,0,0],"split_type":[0,0,0,0,0,0,0,0,0,0,0,0,0,0,0,0,0,0,0,0,0,0,0,0,0,0,0,0,0,0,0,0,0,0,0,0,0,0,0,0,0,0,0,0,0,0,0,0,0,0,0,0,0,0,0,0,0,0,0],"sum_hessian":[3.755E3,1.945E3,1.81E3,7.37E2,1.208E3,1.114E3,6.96E2,3.22E2,4.15E2,4.01E2,8.07E2,5.95E2,5.19E2,4.78E2,2.18E2,1.15E2,2.07E2,2.18E2,1.97E2,1.18E2,2.83E2,3.34E2,4.73E2,2.61E2,3.34E2,4.6E2,5.9E1,2.82E2,1.96E2,1.85E2,3.3E1,6.2E1,5.3E1,2.8E1,1.9E2,1.53E2,4.4E1,1.6E1,1.02E2,7.6E1,2.07E2,4.8E1,2.86E2,3.28E2,1.45E2,8.4E1,1.77E2,6.7E1,2.67E2,1.58E2,3.02E2,4.4E1,1.5E1,2.47E2,3.5E1,1.2E1,1.84E2,4.3E1,1.42E2],"tree_param":{"num_deleted":"0","num_feature":"10","num_nodes":"59","size_leaf_vector":"1"}},{"base_weights":[3.523688E-4,-3.075048E-1,3.2241556E-1,-6.121098E-1,-1.2163738E-1,1.6101809E-1,5.464048E-1,-7.288404E-1,-4.9904844E-1,-2.5319982E-1,-7.9530954E-2,7.2652794E-2,2.3871408E-1,4.307782E-1,7.0125777E-1,-6.052441E-1,-7.807225E-1,-5.3084457E-1,-3.4262326E-1,-3.6225235E-1,-1.7841619E-1,-1.3071018E-1,-4.604117E-2,7.825468E-3,1.2724057E-1,-1.23077594E-1,2.4408314E-1,3.9045945E-1,4.8720568E-1,6.284633E-1,8.205965E-1,-6.514766E-2,-4.776266E-2,-7.90024E-2,-2.7389035E-2,-2.78224E-2,-5.464362E-2,-3.5910334E-2,-1.9834926E-2,-5.5425013E-3,-3.7262302E-2,-1.879518E-2,1.7286543E-3,-5.2455394E-3,-1.4982002E-2,-8.804681E-3,-1.4055875E-3,7.0219324E-3,-2.0300678E-3,8.089231E-3,1.9838935E-2,1.8794835E-5,-1.3850927E-2,1.992332E-2,2.7594006E-2,3.673974E-2,4.515296E-2,4.0541936E-2,5.23435E-2,4.6857722E-2,6.497249E-2,6.7426406E-2,8.746401E-2],"categories":[],"categories_nodes":[],"categories_segments":[],"categories_sizes":[],"default_left":[0,0,0,0,0,0,0,0,0,0,0,0,0,0,0,0,0,0,0,0,0,0,0,0,0,0,0,0,0,0,0,0,0,0,0,0,0,0,0,0,0,0,0,0,0,0,0,0,0,0,0,0,0,0,0,0,0,0,0,0,0,0,0],"id":12,"left_children":[1,3,5,7,9,11,13,15,17,19,21,23,25,27,29,31,33,35,37,39,41,43,45,47,49,51,53,55,57,59,61,-1,-1,-1,-1,-1,-1,-1,-1,-1,-1,-1,-1,-1,-1,-1,-1,-1,-1,-1,-1,-1,-1,-1,-1,-1,-1,-1,-1,-1,-1,-1,-1],"loss_changes":[3.736943E2,1.0902484E2,6.650267E1,9.270599E0,6.616331E0,7.3426113E0,1.3502777E1,1.8167114E0,1.678299E0,2.300417E0,1.5519905E0,1.7790103E0,1.1372566E0,8.199005E-1,2.3336945E0,3.3784866E-1,9.527588E-1,1.0650406E0,8.56967E-2,3.5164165E-1,3.2795715E-1,5.2900314E-1,7.390654E-1,4.068071E-1,8.84202E-1,1.7145798E-2,7.4799347E-1,2.0592499E-1,3.2410812E-1,4.026413E-1,3.671646E-1,0E0,0E0,0E0,0E0,0E0,0E0,0E0,0E0,0E0,0E0,0E0,0E0,0E0,0E0,0E0,0E0,0E0,0E0,0E0,0E0,0E0,0E0,0E0,0E0,0E0,0E0,0E0,0E0,0E0,0E0,0E0,0E0],"parents":[2147483647,0,0,1,1,2,2,3,3,4,4,5,5,6,6,7,7,8,8,9,9,10,10,11,11,12,12,13,13,14,14,15,15,16,16,17,17,18,18,19,19,20,20,21,21,22,22,23,23,24,24,25,25,26,26,27,27,28,28,29,29,30,30],"right_children":[2,4,6,8,10,12,14,16,18,20,22,24,26,28,30,32,34,36,38,40,42,44,46,48,50,52,54,56,58,60,62,-1,-1,-1,-1,-1,-1,-1,-1,-1,-1,-1,-1,-1,-1,-1,-1,-1,-1,-1,-1,-1,-1,-1,-1,-1,-1,-1,-1,-1,-1,-1,-1],"split_conditions":[-6.697806E-1,-3.4170437E0,1.6382141E0,-5.5003037E0,-2.2093406E0,2.4085593E-1,3.2484684E0,-1.1409674E0,7.0533866E-1,-1.2799188E0,-1.3930709E0,-6.0596174E-1,-6.8956923E0,2.4216971E0,4.629364E0,-6.2125854E0,2.255315E0,-1.1409674E0,-4.122543E0,-1.8158996E0,1.6828957E0,-1.0157973E0,-3.8741654E-1,-3.8895944E-1,1.3865535E-1,3.682417E-1,8.5738534E-1,2.3514943E0,-1.4336548E0,-3.4272003E0,-8.25751E-1,-6.514766E-2,-4.776266E-2,-7.90024E-2,-2.7389035E-2,-2.78224E-2,-5.464362E-2,-3.5910334E-2,-1.9834926E-2,-5.5425013E-3,-3.7262302E-2,-1.879518E-2,1.7286543E-3,-5.2455394E-3,-1.4982002E-2,-8.804681E-3,-1.4055875E-3,7.0219324E-3,-2.0300678E-3,8.089231E-3,1.9838935E-2,1.8794835E-5,-1.3850927E-2,1.992332E-2,2.7594006E-2,3.673974E-2,4.515296E-2,4.0541936E-2,5.23435E-2,4.6857722E-2,6.497249E-2,6.7426406E-2,8.746401E-2],"split_indices":[0,0,0,0,0,0,0,4,7,1,0,1,1,0,0,0,4,4,0,4,7,4,1,4,7,0,0,1,1,1,9,0,0,0,0,0,0,0,0,0,0,0,0,0,0,0,0,0,0,0,0,0,0,0,0,0,0,0,0,0,0,0,0],"split_type":[0,0,0,0,0,0,0,0,0,0,0,0,0,0,0,0,0,0,0,0,0,0,0,0,0,0,0,0,0,0,0,0,0,0,0,0,0,0,0,0,0,0,0,0,0,0,0,0,0,0,0,0,0,0,0,0,0,0,0,0,0,0,0],"sum_hessian":[3.767E3,1.926E3,1.841E3,7.29E2,1.197E3,1.071E3,7.7E2,3.56E2,3.73E2,2.89E2,9.08E2,5.02E2,5.69E2,4.43E2,3.27E2,1.09E2,2.47E2,3.08E2,6.5E1,1.16E2,1.73E2,3.58E2,5.5E2,2.3E2,2.72E2,8E0,5.61E2,2.63E2,1.8E2,2.07E2,1.2E2,7.7E1,3.2E1,2.42E2,5E0,1.9E1,2.89E2,5.7E1,8E0,4E0,1.12E2,1.65E2,8E0,7.1E1,2.87E2,2.37E2,3.13E2,7.1E1,1.59E2,1.66E2,1.06E2,1E0,7E0,2.36E2,3.25E2,1.96E2,6.7E1,5.9E1,1.21E2,2.7E1,1.8E2,3.6E1,8.4E1],"tree_param":{"num_deleted":"0","num_feature":"10","num_nodes":"63","size_leaf_vector":"1"}},{"base_weights":[5.1804056E-4,-2.5823388E-1,3.201163E-1,-5.6683344E-1,-1.02967806E-1,1.9966765E-1,5.4903984E-1,-7.2513556E-1,-4.9787444E-1,-1.9198838E-1,-3.7438348E-2,1.10201724E-1,2.734243E-1,4.67424E-1,7.0295036E-1,-5.9553105E-2,-7.642687E-1,-5.193932E-1,-2.74492E-1,-2.9078215E-1,-1.5299793E-1,-8.0237135E-2,-1.1684199E-2,1.9190532E-1,8.194434E-2,2.2583593E-1,3.2821986E-1,4.265461E-1,5.305791E-1,6.539108E-1,8.3601005E-2,-8.053814E-2,-6.143269E-2,-5.5788815E-2,-4.4474944E-2,-2.9875997E-2,-1.4422459E-2,-1.2080406E-2,-3.323615E-2,-1.1406903E-2,-1.8027492E-2,-4.8850332E-3,-1.0060277E-2,4.5950837E-3,-2.94107E-3,1.3516492E-2,2.5597183E-2,1.1716122E-2,3.8532384E-3,3.67687E-2,2.138943E-2,3.8784623E-2,3.0357096E-2,4.751215E-2,4.0066507E-2,5.4548312E-2,3.753913E-2,7.074511E-2,5.2539904E-2],"categories":[],"categories_nodes":[],"categories_segments":[],"categories_sizes":[],"default_left":[0,0,0,0,0,0,0,0,0,0,0,0,0,0,0,0,0,0,0,0,0,0,0,0,0,0,0,0,0,0,0,0,0,0,0,0,0,0,0,0,0,0,0,0,0,0,0,0,0,0,0,0,0,0,0,0,0,0,0],"id":13,"left_children":[1,3,5,7,9,11,13,15,17,19,21,23,25,27,29,-1,31,33,35,37,39,41,43,45,47,49,51,53,55,57,-1,-1,-1,-1,-1,-1,-1,-1,-1,-1,-1,-1,-1,-1,-1,-1,-1,-1,-1,-1,-1,-1,-1,-1,-1,-1,-1,-1,-1],"loss_changes":[3.1127023E2,9.960492E1,4.6324203E1,7.23674E0,8.072166E0,7.2614403E0,6.9570923E0,6.04866E-1,2.203209E0,2.2166443E0,8.797573E-1,1.1409478E0,1.5034943E0,7.5987244E-1,7.518387E-1,0E0,4.730606E-1,1.0276718E0,9.917116E-2,1.1260004E0,4.2860413E-1,1.8684912E-1,5.1218516E-1,4.3070173E-1,5.672693E-1,4.7527122E-1,2.9231453E-1,1.0758591E-1,1.3291931E-1,6.6039276E-1,0E0,0E0,0E0,0E0,0E0,0E0,0E0,0E0,0E0,0E0,0E0,0E0,0E0,0E0,0E0,0E0,0E0,0E0,0E0,0E0,0E0,0E0,0E0,0E0,0E0,0E0,0E0,0E0,0E0],"parents":[2147483647,0,0,1,1,2,2,3,3,4,4,5,5,6,6,7,7,8,8,9,9,10,10,11,11,12,12,13,13,14,14,16,16,17,17,18,18,19,19,20,20,21,21,22,22,23,23,24,24,25,25,26,26,27,27,28,28,29,29],"right_children":[2,4,6,8,10,12,14,16,18,20,22,24,26,28,30,-1,32,34,36,38,40,42,44,46,48,50,52,54,56,58,-1,-1,-1,-1,-1,-1,-1,-1,-1,-1,-1,-1,-1,-1,-1,-1,-1,-1,-1,-1,-1,-1,-1,-1,-1,-1,-1,-1,-1],"split_conditions":[-3.875279E-1,-3.6746476E0,2.2247353E0,-6.5915565E0,-1.6623551E0,6.888255E-1,4.0253224E0,-1.1409674E0,1.6642233E0,-2.9053943E0,-1.0652877E0,-9.2223155E-1,1.417652E0,3.2123835E0,5.516414E0,-5.9553105E-2,1.5362468E0,-4.7395563E0,8.096633E-1,-1.3890731E0,-2.8634503E-1,-3.0679476E-1,-4.759176E-1,1.4487979E-1,2.2072387E-1,-9.644741E-1,-1.3017433E0,-1.0751568E0,2.3267457E0,1.0531499E0,8.3601005E-2,-8.053814E-2,-6.143269E-2,-5.5788815E-2,-4.4474944E-2,-2.9875997E-2,-1.4422459E-2,-1.2080406E-2,-3.323615E-2,-1.1406903E-2,-1.8027492E-2,-4.8850332E-3,-1.0060277E-2,4.5950837E-3,-2.94107E-3,1.3516492E-2,2.5597183E-2,1.1716122E-2,3.8532384E-3,3.67687E-2,2.138943E-2,3.8784623E-2,3.0357096E-2,4.751215E-2,4.0066507E-2,5.4548312E-2,3.753913E-2,7.074511E-2,5.2539904E-2],"split_indices":[0,0,0,0,0,0,0,4,7,0,0,2,0,0,0,0,7,0,9,4,2,4,4,7,4,9,2,2,2,4,0,0,0,0,0,0,0,0,0,0,0,0,0,0,0,0,0,0,0,0,0,0,0,0,0,0,0,0,0],"split_type":[0,0,0,0,0,0,0,0,0,0,0,0,0,0,0,0,0,0,0,0,0,0,0,0,0,0,0,0,0,0,0,0,0,0,0,0,0,0,0,0,0,0,0,0,0,0,0,0,0,0,0,0,0,0,0,0,0,0,0],"sum_hessian":[3.762E3,2.079E3,1.683E3,6.95E2,1.384E3,1.104E3,5.79E2,2.08E2,4.87E2,5.86E2,7.98E2,5E2,6.04E2,3.81E2,1.98E2,5.2E1,1.56E2,4.43E2,4.4E1,1.64E2,4.22E2,2.99E2,4.99E2,1.27E2,3.73E2,3.26E2,2.78E2,2.36E2,1.45E2,1.49E2,4.9E1,1.19E2,3.7E1,2.88E2,1.55E2,3.6E1,8E0,3.3E1,1.31E2,1.76E2,2.46E2,1.19E2,1.8E2,1.17E2,3.82E2,6.9E1,5.8E1,2.05E2,1.68E2,2.3E1,3.03E2,7.7E1,2.01E2,7.6E1,1.6E2,1.3E2,1.5E1,1.02E2,4.7E1],"tree_param":{"num_deleted":"0","num_feature":"10","num_nodes":"59","size_leaf_vector":"1"}},{"base_weights":[2.6203957E-3,-2.3703392E-1,2.8616136E-1,-5.087664E-1,-9.370163E-2,1.7206472E-1,4.852857E-1,-6.4031506E-1,-4.4802514E-1,-1.6855018E-1,-3.403774E-2,1.06449E-1,2.532012E-1,4.1800004E-1,6.310557E-1,-5.349788E-2,-6.780249E-1,-4.6814024E-1,-2.497531E-1,-2.811472E-1,-1.2432582E-1,-4.942189E-2,4.0865365E-2,2.2438183E-2,1.417595E-1,2.2403367E-1,3.3354056E-1,3.4307206E-1,4.5440656E-1,5.8872604E-1,7.5018875E-2,-7.160926E-2,-5.859223E-2,-5.062427E-2,-4.073317E-2,-2.9033339E-2,-1.9876644E-2,-1.1697172E-2,-2.9776862E-2,-7.214006E-3,-1.408033E-2,-6.9188797E-3,-1.6208384E-3,1.2046158E-3,1.482244E-2,4.8491876E-3,-1.1668963E-2,1.1754625E-2,2.0478485E-2,2.771273E-2,1.9299336E-2,3.0348668E-2,4.187597E-2,3.1020893E-2,3.862735E-2,4.1222725E-2,4.988272E-2,4.2777006E-2,6.190252E-2],"categories":[],"categories_nodes":[],"categories_segments":[],"categories_sizes":[],"default_left":[0,0,0,0,0,0,0,0,0,0,0,0,0,0,0,0,0,0,0,0,0,0,0,0,0,0,0,0,0,0,0,0,0,0,0,0,0,0,0,0,0,0,0,0,0,0,0,0,0,0,0,0,0,0,0,0,0,0,0],"id":14,"left_children":[1,3,5,7,9,11,13,15,17,19,21,23,25,27,29,-1,31,33,35,37,39,41,43,45,47,49,51,53,55,57,-1,-1,-1,-1,-1,-1,-1,-1,-1,-1,-1,-1,-1,-1,-1,-1,-1,-1,-1,-1,-1,-1,-1,-1,-1,-1,-1,-1,-1],"loss_changes":[2.567898E2,7.9717926E1,3.9243805E1,5.3623505E0,5.9873075E0,5.839905E0,5.9154053E0,5.151367E-1,1.8253708E0,2.927868E0,8.6395556E-1,1.8093281E0,1.0781784E0,1.0279999E0,5.5178833E-1,0E0,1.379013E-1,8.15567E-1,3.9536953E-2,4.2088318E-1,3.5873413E-1,4.065826E-1,3.942467E-1,6.653708E-1,6.321306E-1,5.46402E-1,2.0330334E-1,8.745575E-2,3.3584595E-1,4.667244E-1,0E0,0E0,0E0,0E0,0E0,0E0,0E0,0E0,0E0,0E0,0E0,0E0,0E0,0E0,0E0,0E0,0E0,0E0,0E0,0E0,0E0,0E0,0E0,0E0,0E0,0E0,0E0,0E0,0E0],"parents":[2147483647,0,0,1,1,2,2,3,3,4,4,5,5,6,6,7,7,8,8,9,9,10,10,11,11,12,12,13,13,14,14,16,16,17,17,18,18,19,19,20,20,21,21,22,22,23,23,24,24,25,25,26,26,27,27,28,28,29,29],"right_children":[2,4,6,8,10,12,14,16,18,20,22,24,26,28,30,-1,32,34,36,38,40,42,44,46,48,50,52,54,56,58,-1,-1,-1,-1,-1,-1,-1,-1,-1,-1,-1,-1,-1,-1,-1,-1,-1,-1,-1,-1,-1,-1,-1,-1,-1,-1,-1,-1,-1],"split_conditions":[-4.218499E-1,-3.6746476E0,2.1451297E0,-6.450799E0,-1.5650877E0,8.847071E-1,4.0253224E0,-1.1189456E0,1.6642233E0,-1.1243228E0,1.8972504E0,-1.6281753E0,1.6969714E0,-5.884352E-1,5.516414E0,-5.349788E-2,1.0342802E0,-4.8416777E0,3.495501E0,-1.3890731E0,-1.0961174E0,-8.248276E-1,6.3408107E-1,1.208156E0,2.404913E-1,-2.0000896E-1,9.3836284E-1,2.8084097E0,3.1498904E0,-3.0297327E0,7.5018875E-2,-7.160926E-2,-5.859223E-2,-5.062427E-2,-4.073317E-2,-2.9033339E-2,-1.9876644E-2,-1.1697172E-2,-2.9776862E-2,-7.214006E-3,-1.408033E-2,-6.9188797E-3,-1.6208384E-3,1.2046158E-3,1.482244E-2,4.8491876E-3,-1.1668963E-2,1.1754625E-2,2.0478485E-2,2.771273E-2,1.9299336E-2,3.0348668E-2,4.187597E-2,3.1020893E-2,3.862735E-2,4.1222725E-2,4.988272E-2,4.2777006E-2,6.190252E-2],"split_indices":[0,0,0,0,0,0,0,4,7,1,1,1,1,1,0,0,7,0,1,4,4,0,7,4,7,4,7,0,0,1,0,0,0,0,0,0,0,0,0,0,0,0,0,0,0,0,0,0,0,0,0,0,0,0,0,0,0,0,0],"split_type":[0,0,0,0,0,0,0,0,0,0,0,0,0,0,0,0,0,0,0,0,0,0,0,0,0,0,0,0,0,0,0,0,0,0,0,0,0,0,0,0,0,0,0,0,0,0,0,0,0,0,0,0,0,0,0,0,0,0,0],"sum_hessian":[3.777E3,2.047E3,1.73E3,7.06E2,1.341E3,1.101E3,6.29E2,2.2E2,4.86E2,5.94E2,7.47E2,6.1E2,4.91E2,4.33E2,1.96E2,6.2E1,1.58E2,4.4E2,4.6E1,1.66E2,4.28E2,6.2E2,1.27E2,1.81E2,4.29E2,3.63E2,1.28E2,1.45E2,2.88E2,1.49E2,4.7E1,1.07E2,5.1E1,2.66E2,1.74E2,2.3E1,2.3E1,1.6E1,1.5E2,1.04E2,3.24E2,3.88E2,2.32E2,1.01E2,2.6E1,1.53E2,2.8E1,3.12E2,1.17E2,1.31E2,2.32E2,9.8E1,3E1,8.7E1,5.8E1,1.53E2,1.35E2,2.6E1,1.23E2],"tree_param":{"num_deleted":"0","num_feature":"10","num_nodes":"59","size_leaf_vector":"1"}},{"base_weights":[8.4034476E-4,-2.0852414E-1,2.5337732E-1,-4.4169414E-1,-6.773404E-2,1.408863E-1,4.103825E-1,-5.523568E-1,-3.6752617E-1,-1.2734494E-1,-2.8850261E-2,5.989928E-2,1.8643488E-1,3.4325564E-1,5.353653E-1,-4.5297128E-1,-6.020213E-1,-1.8549578E-1,-3.8697487E-1,-2.3440443E-1,-9.6743904E-2,-4.313896E-2,4.4845555E-2,1.0540649E-2,1.040068E-1,1.5847069E-1,2.4020551E-1,3.0887914E-1,3.9714074E-1,5.015989E-1,6.7200534E-2,-4.9258173E-2,-3.897361E-2,-6.345459E-2,-5.38052E-2,-2.398049E-2,-9.283998E-3,-4.126115E-2,-2.4021711E-2,-1.8795917E-2,-2.9241566E-2,-1.0165862E-2,1.031299E-2,3.02887E-3,-5.172591E-3,1.3931682E-3,1.4433603E-2,6.45592E-3,-2.0001994E-3,8.034776E-3,1.9966856E-2,-8.973512E-3,1.6166197E-2,2.2004588E-2,3.677043E-2,2.4936656E-2,3.2606237E-2,4.1714605E-2,2.698094E-2,3.852741E-2,5.2794285E-2],"categories":[],"categories_nodes":[],"categories_segments":[],"categories_sizes":[],"default_left":[0,0,0,0,0,0,0,0,0,0,0,0,0,0,0,0,0,0,0,0,0,0,0,0,0,0,0,0,0,0,0,0,0,0,0,0,0,0,0,0,0,0,0,0,0,0,0,0,0,0,0,0,0,0,0,0,0,0,0,0,0],"id":15,"left_children":[1,3,5,7,9,11,13,15,17,19,21,23,25,27,29,31,33,35,37,39,41,43,45,47,49,51,53,55,57,59,-1,-1,-1,-1,-1,-1,-1,-1,-1,-1,-1,-1,-1,-1,-1,-1,-1,-1,-1,-1,-1,-1,-1,-1,-1,-1,-1,-1,-1,-1,-1],"loss_changes":[1.9911696E2,6.7563E1,3.0090652E1,6.1578827E0,2.9748235E0,3.662922E0,5.789688E0,1.2525024E0,1.5815201E0,1.6383209E0,8.2223487E-1,7.8265476E-1,9.1976166E-1,7.405472E-1,8.0255127E-1,7.6034546E-2,8.093262E-2,2.1424305E-1,1.4848404E0,2.4680471E-1,3.9948392E-1,4.1329634E-1,3.8859487E-1,2.8341895E-1,4.1397786E-1,3.487711E-1,4.742794E-1,2.1422768E-1,3.408699E-1,4.156189E-1,0E0,0E0,0E0,0E0,0E0,0E0,0E0,0E0,0E0,0E0,0E0,0E0,0E0,0E0,0E0,0E0,0E0,0E0,0E0,0E0,0E0,0E0,0E0,0E0,0E0,0E0,0E0,0E0,0E0,0E0,0E0],"parents":[2147483647,0,0,1,1,2,2,3,3,4,4,5,5,6,6,7,7,8,8,9,9,10,10,11,11,12,12,13,13,14,14,15,15,16,16,17,17,18,18,19,19,20,20,21,21,22,22,23,23,24,24,25,25,26,26,27,27,28,28,29,29],"right_children":[2,4,6,8,10,12,14,16,18,20,22,24,26,28,30,32,34,36,38,40,42,44,46,48,50,52,54,56,58,60,-1,-1,-1,-1,-1,-1,-1,-1,-1,-1,-1,-1,-1,-1,-1,-1,-1,-1,-1,-1,-1,-1,-1,-1,-1,-1,-1,-1,-1,-1,-1],"split_conditions":[-4.218499E-1,-3.2557118E0,1.8267653E0,-5.7877526E0,-1.5650877E0,2.4085593E-1,3.590237E0,-1.0961174E0,-1.0748581E0,-1.8287654E0,2.1214776E0,-5.0774926E-1,1.2549267E0,2.7476077E0,5.516414E0,-6.5915565E0,-6.8235044E0,-6.7107207E-1,1.069048E0,6.5280783E-1,1.7371607E0,-1.1670773E0,6.3408107E-1,-2.5037572E-1,1.2151127E0,-8.185764E0,1.0342802E0,-1.1846162E0,1.9831579E0,-3.0297327E0,6.7200534E-2,-4.9258173E-2,-3.897361E-2,-6.345459E-2,-5.38052E-2,-2.398049E-2,-9.283998E-3,-4.126115E-2,-2.4021711E-2,-1.8795917E-2,-2.9241566E-2,-1.0165862E-2,1.031299E-2,3.02887E-3,-5.172591E-3,1.3931682E-3,1.4433603E-2,6.45592E-3,-2.0001994E-3,8.034776E-3,1.9966856E-2,-8.973512E-3,1.6166197E-2,2.2004588E-2,3.677043E-2,2.4936656E-2,3.2606237E-2,4.1714605E-2,2.698094E-2,3.852741E-2,5.2794285E-2],"split_indices":[0,0,0,0,0,0,0,4,4,1,1,1,0,0,0,0,0,1,7,2,7,4,7,4,7,1,7,1,2,1,0,0,0,0,0,0,0,0,0,0,0,0,0,0,0,0,0,0,0,0,0,0,0,0,0,0,0,0,0,0,0],"split_type":[0,0,0,0,0,0,0,0,0,0,0,0,0,0,0,0,0,0,0,0,0,0,0,0,0,0,0,0,0,0,0,0,0,0,0,0,0,0,0,0,0,0,0,0,0,0,0,0,0,0,0,0,0,0,0,0,0,0,0,0,0],"sum_hessian":[3.764E3,2.058E3,1.706E3,7.74E2,1.284E3,9.95E2,7.11E2,3.08E2,4.66E2,5.06E2,7.78E2,3.59E2,6.36E2,4.65E2,2.46E2,1.06E2,2.02E2,4.6E1,4.2E2,1.11E2,3.95E2,6.52E2,1.26E2,1.7E2,1.89E2,4.21E2,2.15E2,2.88E2,1.77E2,2.01E2,4.5E1,6.1E1,4.5E1,1.28E2,7.4E1,2.8E1,1.8E1,3.56E2,6.4E1,6.4E1,4.7E1,3.86E2,9E0,6.8E1,5.84E2,9.7E1,2.9E1,6.1E1,1.09E2,1.53E2,3.6E1,5E0,4.16E2,1.88E2,2.7E1,6.8E1,2.2E2,1.51E2,2.6E1,4E1,1.61E2],"tree_param":{"num_deleted":"0","num_feature":"10","num_nodes":"61","size_leaf_vector":"1"}},{"base_weights":[5.25495E-5,2.5285691E-2,-5.1522475E-2,-7.335455E-2,3.9461855E-2,-8.893233E-2,-1.3414884E-2,-1.1799608E-1,1.37143E-2,5.0977997E-2,-8.4593885E-2,-1.9095342E-1,-4.306524E-2,3.539281E-2,-6.298371E-2,-1.490712E-1,1.0645848E-1,-6.164892E-2,5.0691854E-2,4.078909E-2,1.8181734E-1,-1.708002E-1,-3.0357257E-2,-3.6812E-2,-2.227135E-1,-1.2766571E-1,-9.797528E-3,5.9917204E-2,-1.4043625E-1,-4.847811E-2,-2.2234684E-1,-2.1942932E-2,-3.9082435E-3,-1.5756695E-2,1.3502589E-2,-2.3560394E-2,-3.53306E-4,1.3565014E-2,-1.8925592E-3,5.2303574E-3,-5.708647E-3,3.305261E-2,1.4340392E-2,-4.471117E-2,-9.639549E-3,1.9194944E-2,-1.0327245E-2,-1.586661E-2,6.7739445E-3,-2.5127843E-2,-1.1623375E-3,-2.0962466E-2,-1.4881276E-3,-5.5725216E-3,1.4494212E-2,2.470431E-3,2.0428903E-2,2.0672642E-3,-2.8646788E-2,-1.6672378E-2,-3.0274128E-3,-4.6621274E-2,-8.016217E-3],"categories":[],"categories_nodes":[],"categories_segments":[],"categories_sizes":[],"default_left":[0,0,0,0,0,0,0,0,0,0,0,0,0,0,0,0,0,0,0,0,0,0,0,0,0,0,0,0,0,0,0,0,0,0,0,0,0,0,0,0,0,0,0,0,0,0,0,0,0,0,0,0,0,0,0,0,0,0,0,0,0,0,0],"id":16,"left_children":[1,3,5,7,9,11,13,15,17,19,21,23,25,27,29,31,33,35,37,39,41,43,45,47,49,51,53,55,57,59,61,-1,-1,-1,-1,-1,-1,-1,-1,-1,-1,-1,-1,-1,-1,-1,-1,-1,-1,-1,-1,-1,-1,-1,-1,-1,-1,-1,-1,-1,-1,-1,-1],"loss_changes":[4.8685384E0,3.5155249E0,1.7508686E0,1.2298744E0,3.1430416E0,2.8930106E0,1.4780265E0,1.4736352E0,3.0409384E-1,2.6734672E0,8.6914086E-1,9.3174696E-1,1.2061543E0,1.3365418E0,6.896534E-1,1.4153271E0,2.1738118E-1,3.6311123E-1,4.3433154E-1,2.107069E0,7.8090143E-1,1.4371395E0,1.900129E0,4.4390866E-1,9.5581293E-1,1.1153674E0,2.2040887E0,1.3726494E0,8.999479E-1,5.9551185E-1,8.294771E-1,0E0,0E0,0E0,0E0,0E0,0E0,0E0,0E0,0E0,0E0,0E0,0E0,0E0,0E0,0E0,0E0,0E0,0E0,0E0,0E0,0E0,0E0,0E0,0E0,0E0,0E0,0E0,0E0,0E0,0E0,0E0,0E0],"parents":[2147483647,0,0,1,1,2,2,3,3,4,4,5,5,6,6,7,7,8,8,9,9,10,10,11,11,12,12,13,13,14,14,15,15,16,16,17,17,18,18,19,19,20,20,21,21,22,22,23,23,24,24,25,25,26,26,27,27,28,28,29,29,30,30],"right_children":[2,4,6,8,10,12,14,16,18,20,22,24,26,28,30,32,34,36,38,40,42,44,46,48,50,52,54,56,58,60,62,-1,-1,-1,-1,-1,-1,-1,-1,-1,-1,-1,-1,-1,-1,-1,-1,-1,-1,-1,-1,-1,-1,-1,-1,-1,-1,-1,-1,-1,-1,-1,-1],"split_conditions":[6.042833E-1,-1.0339752E0,1.056373E-1,2.6049158E-2,1.384032E0,-5.3054917E-1,1.5504745E-1,9.6079355E-1,-2.7138267E0,3.353215E0,-1.8807636E-1,-4.427989E-1,-3.7205744E0,2.327419E0,1.0716087E0,3.5150456E-1,-1.274996E0,-1.3355741E-1,3.8821284E-2,7.337682E-1,2.644658E-1,-2.7681133E-1,3.7099987E-1,-9.064039E-1,-3.1935167E-1,7.355544E-1,1.1645806E0,4.4002402E-1,-2.7260797E0,-1.0725269E0,-3.3850798E-1,-2.1942932E-2,-3.9082435E-3,-1.5756695E-2,1.3502589E-2,-2.3560394E-2,-3.53306E-4,1.3565014E-2,-1.8925592E-3,5.2303574E-3,-5.708647E-3,3.305261E-2,1.4340392E-2,-4.471117E-2,-9.639549E-3,1.9194944E-2,-1.0327245E-2,-1.586661E-2,6.7739445E-3,-2.5127843E-2,-1.1623375E-3,-2.0962466E-2,-1.4881276E-3,-5.5725216E-3,1.4494212E-2,2.470431E-3,2.0428903E-2,2.0672642E-3,-2.8646788E-2,-1.6672378E-2,-3.0274128E-3,-4.6621274E-2,-8.016217E-3],"split_indices":[2,4,1,9,7,7,6,1,1,1,9,4,1,5,9,7,6,7,7,9,4,4,4,4,1,7,4,4,6,9,7,0,0,0,0,0,0,0,0,0,0,0,0,0,0,0,0,0,0,0,0,0,0,0,0,0,0,0,0,0,0,0,0],"split_type":[0,0,0,0,0,0,0,0,0,0,0,0,0,0,0,0,0,0,0,0,0,0,0,0,0,0,0,0,0,0,0,0,0,0,0,0,0,0,0,0,0,0,0,0,0,0,0,0,0,0,0,0,0,0,0,0,0,0,0,0,0,0,0],"sum_hessian":[3.739E3,2.511E3,1.228E3,3.15E2,2.196E3,6.19E2,6.09E2,2.08E2,1.07E2,2.01E3,1.86E2,1.91E2,4.28E2,3.07E2,3.02E2,1.83E2,2.5E1,3.5E1,7.2E1,1.866E3,1.44E2,7.1E1,1.15E2,3.3E1,1.58E2,1.2E2,3.08E2,2.7E2,3.7E1,2.78E2,2.4E1,1.11E2,7.2E1,2E0,2.3E1,8E0,2.7E1,3.2E1,4E1,1.67E3,1.96E2,2.8E1,1.16E2,1.4E1,5.7E1,2.8E1,8.7E1,1.5E1,1.8E1,1.39E2,1.9E1,6.9E1,5.1E1,2.38E2,7E1,2.18E2,5.2E1,1.8E1,1.9E1,3.6E1,2.42E2,8E0,1.6E1],"tree_param":{"num_deleted":"0","num_feature":"10","num_nodes":"63","size_leaf_vector":"1"}},{"base_weights":[-1.2551149E-3,-2.2024366E-1,1.9236818E-1,-4.077292E-1,-9.846204E-2,8.980028E-2,3.486597E-1,-5.202901E-1,-3.5921124E-1,-1.8246442E-1,-6.587305E-2,2.432623E-2,1.494737E-1,2.852035E-1,4.668248E-1,-4.0832517E-1,-5.4748863E-1,-3.7382412E-1,-1.9220331E-1,-2.5077245E-1,-1.2518993E-1,-9.332992E-2,-4.24256E-2,-1.3244302E-2,7.331222E-2,1.2990057E-1,1.8837065E-1,2.5216687E-1,3.2825172E-1,4.1144338E-1,5.335459E-1,-4.1319337E-2,-9.949625E-3,-5.790629E-2,-4.0651474E-2,-3.957689E-2,-3.0274818E-2,-2.153272E-2,-1.183767E-2,-1.930861E-2,-2.8613407E-2,-5.9876656E-3,-1.5611473E-2,-1.7716227E-2,-8.351511E-3,-7.863865E-3,-1.9856337E-3,3.3457836E-3,-2.8188305E-3,5.0819013E-3,1.3210572E-2,6.2714466E-3,1.4532702E-2,1.5957536E-2,2.5625953E-2,2.0177267E-2,2.6974535E-2,2.6511475E-2,3.5094947E-2,1.8682076E-2,4.1934077E-2,5.7350017E-2,4.1083325E-2],"categories":[],"categories_nodes":[],"categories_segments":[],"categories_sizes":[],"default_left":[0,0,0,0,0,0,0,0,0,0,0,0,0,0,0,0,0,0,0,0,0,0,0,0,0,0,0,0,0,0,0,0,0,0,0,0,0,0,0,0,0,0,0,0,0,0,0,0,0,0,0,0,0,0,0,0,0,0,0,0,0,0,0],"id":17,"left_children":[1,3,5,7,9,11,13,15,17,19,21,23,25,27,29,31,33,35,37,39,41,43,45,47,49,51,53,55,57,59,61,-1,-1,-1,-1,-1,-1,-1,-1,-1,-1,-1,-1,-1,-1,-1,-1,-1,-1,-1,-1,-1,-1,-1,-1,-1,-1,-1,-1,-1,-1,-1,-1],"loss_changes":[1.5794476E2,3.9870697E1,3.1660973E1,3.5704346E0,2.8925247E0,4.6653004E0,5.7380295E0,4.0072632E-1,1.109333E0,1.126648E0,4.8918605E-1,1.0518564E0,4.5136547E-1,6.453743E-1,7.8554535E-1,2.5040627E-2,4.8568344E-1,5.7271194E-1,4.450369E-2,2.1809578E-1,3.1987953E-1,2.748294E-1,3.3761877E-1,2.2706817E-1,3.212552E-1,4.251547E-1,3.6376715E-1,2.0601273E-1,2.2079849E-1,1.9307137E-1,3.5273743E-1,0E0,0E0,0E0,0E0,0E0,0E0,0E0,0E0,0E0,0E0,0E0,0E0,0E0,0E0,0E0,0E0,0E0,0E0,0E0,0E0,0E0,0E0,0E0,0E0,0E0,0E0,0E0,0E0,0E0,0E0,0E0,0E0],"parents":[2147483647,0,0,1,1,2,2,3,3,4,4,5,5,6,6,7,7,8,8,9,9,10,10,11,11,12,12,13,13,14,14,15,15,16,16,17,17,18,18,19,19,20,20,21,21,22,22,23,23,24,24,25,25,26,26,27,27,28,28,29,29,30,30],"right_children":[2,4,6,8,10,12,14,16,18,20,22,24,26,28,30,32,34,36,38,40,42,44,46,48,50,52,54,56,58,60,62,-1,-1,-1,-1,-1,-1,-1,-1,-1,-1,-1,-1,-1,-1,-1,-1,-1,-1,-1,-1,-1,-1,-1,-1,-1,-1,-1,-1,-1,-1,-1,-1],"split_conditions":[-8.248276E-1,-3.6746476E0,1.5888416E0,-6.5915565E0,-2.3371506E0,1.034909E-1,3.4328358E0,-1.2149172E0,1.6289785E0,-1.1243228E0,-1.4566399E0,8.4290676E-2,1.0912753E0,2.4216971E0,4.629364E0,-6.7266264E0,1.6289785E0,-4.4812145E0,4.647811E0,-1.9273143E-1,-1.1409674E0,-1.7097964E0,-3.0061665E-1,-5.154809E-1,5.9580386E-1,-1.66093E0,4.2561907E-1,-9.935105E-1,-1.5608609E0,-6.8956923E0,1.5517886E0,-4.1319337E-2,-9.949625E-3,-5.790629E-2,-4.0651474E-2,-3.957689E-2,-3.0274818E-2,-2.153272E-2,-1.183767E-2,-1.930861E-2,-2.8613407E-2,-5.9876656E-3,-1.5611473E-2,-1.7716227E-2,-8.351511E-3,-7.863865E-3,-1.9856337E-3,3.3457836E-3,-2.8188305E-3,5.0819013E-3,1.3210572E-2,6.2714466E-3,1.4532702E-2,1.5957536E-2,2.5625953E-2,2.0177267E-2,2.6974535E-2,2.6511475E-2,3.5094947E-2,1.8682076E-2,4.1934077E-2,5.7350017E-2,4.1083325E-2],"split_indices":[0,0,0,0,0,0,0,4,7,1,0,1,0,0,0,0,7,0,1,7,4,1,1,4,7,1,1,1,1,1,4,0,0,0,0,0,0,0,0,0,0,0,0,0,0,0,0,0,0,0,0,0,0,0,0,0,0,0,0,0,0,0,0],"split_type":[0,0,0,0,0,0,0,0,0,0,0,0,0,0,0,0,0,0,0,0,0,0,0,0,0,0,0,0,0,0,0,0,0,0,0,0,0,0,0,0,0,0,0,0,0,0,0,0,0,0,0,0,0,0,0,0,0,0,0,0,0,0,0],"sum_hessian":[3.723E3,1.747E3,1.976E3,6.87E2,1.06E3,1.194E3,7.82E2,2.04E2,4.83E2,2.95E2,7.65E2,5.7E2,6.24E2,5.11E2,2.71E2,4.3E1,1.61E2,4.43E2,4E1,1.33E2,1.62E2,3.51E2,4.14E2,3.23E2,2.47E2,4.18E2,2.06E2,2.93E2,2.18E2,1.52E2,1.19E2,4.2E1,1E0,1.29E2,3.2E1,3.35E2,1.08E2,2.9E1,1.1E1,5.3E1,8E1,5.3E1,1.09E2,3.5E1,3.16E2,1.58E2,2.56E2,7.8E1,2.45E2,1.8E2,6.7E1,7.9E1,3.39E2,1.47E2,5.9E1,7.9E1,2.14E2,6.1E1,1.57E2,6E0,1.46E2,8.7E1,3.2E1],"tree_param":{"num_deleted":"0","num_feature":"10","num_nodes":"63","size_leaf_vector":"1"}},{"base_weights":[-3.5277134E-4,-1.588363E-1,2.1583322E-1,-3.4958732E-1,-5.185902E-2,1.3493028E-1,3.553952E-1,-4.2736393E-1,-2.828574E-1,-1.0257869E-1,-1.609535E-2,9.773934E-2,1.9942519E-1,3.0283922E-1,4.5738506E-1,-3.4284624E-1,-4.7176948E-1,-3.1114873E-1,-2.026991E-1,-1.7774317E-1,-8.153846E-2,-3.6105905E-2,3.5121698E-2,1.3137025E-1,6.679631E-2,1.7857696E-1,2.9306364E-1,2.6778653E-1,3.4546176E-1,4.3194446E-1,5.7585996E-1,-3.7752245E-2,-2.3158075E-2,-4.78823E-2,-1.2393209E-2,-3.467315E-2,-2.5259918E-2,-3.0143196E-2,-1.7302109E-2,4.4733845E-4,-1.8849937E-2,-3.8313728E-3,-9.488128E-3,-6.240387E-4,-5.4480205E-3,1.0336537E-3,1.1469691E-2,2.380572E-2,1.1132313E-2,2.0416575E-3,9.244553E-3,2.155026E-2,1.5081299E-2,2.3454357E-2,3.300115E-2,2.738156E-2,1.4096692E-2,3.0822327E-2,3.7418064E-2,5.050796E-2,3.8621377E-2,2.3605999E-2,5.906446E-2],"categories":[],"categories_nodes":[],"categories_segments":[],"categories_sizes":[],"default_left":[0,0,0,0,0,0,0,0,0,0,0,0,0,0,0,0,0,0,0,0,0,0,0,0,0,0,0,0,0,0,0,0,0,0,0,0,0,0,0,0,0,0,0,0,0,0,0,0,0,0,0,0,0,0,0,0,0,0,0,0,0,0,0],"id":18,"left_children":[1,3,5,7,9,11,13,15,17,19,21,23,25,27,29,31,33,35,37,39,41,43,45,47,49,51,53,55,57,59,61,-1,-1,-1,-1,-1,-1,-1,-1,-1,-1,-1,-1,-1,-1,-1,-1,-1,-1,-1,-1,-1,-1,-1,-1,-1,-1,-1,-1,-1,-1,-1,-1],"loss_changes":[1.2992122E2,4.463025E1,1.8062767E1,3.9584732E0,2.543281E0,2.4199142E0,3.0132751E0,1.1931152E0,9.030075E-1,9.0276384E-1,8.457705E-1,6.645198E-1,6.7192936E-1,4.9165726E-1,3.4804916E-1,4.0643024E-1,5.147705E-1,5.645046E-1,2.8188848E-1,2.4779868E-1,2.587812E-1,3.2507348E-1,4.5638442E-1,6.3437796E-1,4.013884E-1,2.8121185E-1,6.5301895E-2,1.2885094E-1,6.9683075E-2,3.6346626E-1,2.1335602E-2,0E0,0E0,0E0,0E0,0E0,0E0,0E0,0E0,0E0,0E0,0E0,0E0,0E0,0E0,0E0,0E0,0E0,0E0,0E0,0E0,0E0,0E0,0E0,0E0,0E0,0E0,0E0,0E0,0E0,0E0,0E0,0E0],"parents":[2147483647,0,0,1,1,2,2,3,3,4,4,5,5,6,6,7,7,8,8,9,9,10,10,11,11,12,12,13,13,14,14,15,15,16,16,17,17,18,18,19,19,20,20,21,21,22,22,23,23,24,24,25,25,26,26,27,27,28,28,29,29,30,30],"right_children":[2,4,6,8,10,12,14,16,18,20,22,24,26,28,30,32,34,36,38,40,42,44,46,48,50,52,54,56,58,60,62,-1,-1,-1,-1,-1,-1,-1,-1,-1,-1,-1,-1,-1,-1,-1,-1,-1,-1,-1,-1,-1,-1,-1,-1,-1,-1,-1,-1,-1,-1,-1,-1],"split_conditions":[-2.358407E-1,-3.2557118E0,2.2247353E0,-5.5003037E0,-1.4301158E0,1.2303541E0,4.0253224E0,-1.0520179E0,8.825126E-2,-1.8287654E0,1.3015517E0,-2.2797051E-1,2.8999994E0,1.0070397E0,5.962695E0,-6.1188645E0,5.0341554E0,-4.2424445E0,1.056373E-1,-1.7090251E0,-9.239762E-1,-2.5037572E-1,5.9580386E-1,-3.7797284E-1,-1.0644605E0,-1.5400532E-1,4.6263823E-1,1.268777E0,3.087262E0,-1.9158472E-1,-1.206613E0,-3.7752245E-2,-2.3158075E-2,-4.78823E-2,-1.2393209E-2,-3.467315E-2,-2.5259918E-2,-3.0143196E-2,-1.7302109E-2,4.4733845E-4,-1.8849937E-2,-3.8313728E-3,-9.488128E-3,-6.240387E-4,-5.4480205E-3,1.0336537E-3,1.1469691E-2,2.380572E-2,1.1132313E-2,2.0416575E-3,9.244553E-3,2.155026E-2,1.5081299E-2,2.3454357E-2,3.300115E-2,2.738156E-2,1.4096692E-2,3.0822327E-2,3.7418064E-2,5.050796E-2,3.8621377E-2,2.3605999E-2,5.906446E-2],"split_indices":[0,0,0,0,0,0,0,4,7,1,1,2,1,1,0,0,1,0,1,4,4,4,7,9,1,4,7,4,0,4,9,0,0,0,0,0,0,0,0,0,0,0,0,0,0,0,0,0,0,0,0,0,0,0,0,0,0,0,0,0,0,0,0],"split_type":[0,0,0,0,0,0,0,0,0,0,0,0,0,0,0,0,0,0,0,0,0,0,0,0,0,0,0,0,0,0,0,0,0,0,0,0,0,0,0,0,0,0,0,0,0,0,0,0,0,0,0,0,0,0,0,0,0,0,0,0,0,0,0],"sum_hessian":[3.79E3,2.187E3,1.603E3,7.85E2,1.402E3,1.016E3,5.87E2,3.6E2,4.25E2,5.79E2,8.23E2,6.46E2,3.7E2,3.9E2,1.97E2,1.27E2,2.33E2,3.12E2,1.13E2,1.25E2,4.54E2,5.92E2,2.31E2,3.08E2,3.38E2,3.05E2,6.5E1,2.18E2,1.72E2,1.66E2,3.1E1,9.5E1,3.2E1,2.28E2,5E0,1.91E2,1.21E2,2.4E1,8.9E1,7E0,1.18E2,1.08E2,3.46E2,2.26E2,3.66E2,1.77E2,5.4E1,4.7E1,2.61E2,1.21E2,2.17E2,1.28E2,1.77E2,2.8E1,3.7E1,2.07E2,1.1E1,8E1,9.2E1,6E1,1.06E2,2E0,2.9E1],"tree_param":{"num_deleted":"0","num_feature":"10","num_nodes":"63","size_leaf_vector":"1"}},{"base_weights":[-8.9185365E-4,-1.793462E-1,1.5601915E-1,-3.3367237E-1,-7.9584114E-2,7.410385E-2,2.8604856E-1,-4.4068098E-1,-2.9920858E-1,-1.4630023E-1,-5.4602776E-2,2.0684866E-2,1.2193315E-1,2.3366547E-1,3.9113218E-1,-4.042329E-2,-5.444755E-1,-3.3083478E-1,-2.4029872E-1,-7.080119E-2,-1.8119925E-1,-1.0204292E-1,-4.5669593E-2,-4.920853E-3,6.426152E-2,1.6646005E-1,1.03210516E-1,2.1319896E-1,2.8345102E-1,3.5601595E-1,4.898207E-1,-5.514249E-2,-1.3672543E-2,-2.3812212E-2,-3.67314E-2,-2.5726417E-2,-1.3537717E-2,-2.6542187E-2,-5.9071924E-3,-2.1751532E-2,-1.4305289E-2,4.2974172E-4,-1.2548077E-2,-5.872171E-3,-2.06916E-3,4.101966E-3,-2.1936547E-3,5.802237E-3,2.4047306E-2,1.4434463E-2,2.3207225E-2,2.4268772E-2,9.558106E-3,1.782684E-2,2.4057778E-2,2.2872744E-2,3.0930102E-2,4.1725043E-2,3.0713191E-2,3.2440923E-2,5.4749455E-2],"categories":[],"categories_nodes":[],"categories_segments":[],"categories_sizes":[],"default_left":[0,0,0,0,0,0,0,0,0,0,0,0,0,0,0,0,0,0,0,0,0,0,0,0,0,0,0,0,0,0,0,0,0,0,0,0,0,0,0,0,0,0,0,0,0,0,0,0,0,0,0,0,0,0,0,0,0,0,0,0,0],"id":19,"left_children":[1,3,5,7,9,11,13,15,17,19,21,23,25,27,29,-1,31,33,35,37,39,41,43,45,47,49,51,53,55,57,59,-1,-1,-1,-1,-1,-1,-1,-1,-1,-1,-1,-1,-1,-1,-1,-1,-1,-1,-1,-1,-1,-1,-1,-1,-1,-1,-1,-1,-1,-1],"loss_changes":[1.0461341E2,2.6885475E1,2.1153782E1,2.3980637E0,1.7636685E0,3.1171236E0,4.1361427E0,4.0411758E-1,8.930321E-1,7.48641E-1,3.237779E-1,6.4525527E-1,5.1969814E-1,4.6432304E-1,7.058716E-1,0E0,3.7950516E-2,1.0522957E0,2.9625988E-1,1.9661745E-1,2.4179268E-1,3.0461073E-1,2.1199906E-1,2.8622386E-1,2.2132087E-1,2.407484E-1,4.6204948E-1,3.10009E-1,1.3720036E-1,4.4358826E-1,4.3294334E-1,0E0,0E0,0E0,0E0,0E0,0E0,0E0,0E0,0E0,0E0,0E0,0E0,0E0,0E0,0E0,0E0,0E0,0E0,0E0,0E0,0E0,0E0,0E0,0E0,0E0,0E0,0E0,0E0,0E0,0E0],"parents":[2147483647,0,0,1,1,2,2,3,3,4,4,5,5,6,6,7,7,8,8,9,9,10,10,11,11,12,12,13,13,14,14,16,16,17,17,18,18,19,19,20,20,21,21,22,22,23,23,24,24,25,25,26,26,27,27,28,28,29,29,30,30],"right_children":[2,4,6,8,10,12,14,16,18,20,22,24,26,28,30,-1,32,34,36,38,40,42,44,46,48,50,52,54,56,58,60,-1,-1,-1,-1,-1,-1,-1,-1,-1,-1,-1,-1,-1,-1,-1,-1,-1,-1,-1,-1,-1,-1,-1,-1,-1,-1,-1,-1,-1,-1],"split_conditions":[-8.427062E-1,-3.6746476E0,1.5888416E0,-6.9090743E0,-2.3371506E0,1.034909E-1,3.590237E0,9.6348666E-2,-4.8416777E0,-5.939929E-1,-1.5608609E0,5.3023386E-1,-1.0554225E0,1.9675355E0,5.2855597E0,-4.042329E-2,4.433586E0,-1.0520179E0,2.5149407E0,-5.1015778E0,-3.0785768E0,-1.1670773E0,-1.223865E0,-5.534216E-1,5.8910937E0,1.4918997E0,-1.0492272E0,2.350014E0,2.027463E0,-1.440878E-1,-8.6973E-1,-5.514249E-2,-1.3672543E-2,-2.3812212E-2,-3.67314E-2,-2.5726417E-2,-1.3537717E-2,-2.6542187E-2,-5.9071924E-3,-2.1751532E-2,-1.4305289E-2,4.2974172E-4,-1.2548077E-2,-5.872171E-3,-2.06916E-3,4.101966E-3,-2.1936547E-3,5.802237E-3,2.4047306E-2,1.4434463E-2,2.3207225E-2,2.4268772E-2,9.558106E-3,1.782684E-2,2.4057778E-2,2.2872744E-2,3.0930102E-2,4.1725043E-2,3.0713191E-2,3.2440923E-2,5.4749455E-2],"split_indices":[0,0,0,0,0,0,0,9,0,9,1,1,2,1,0,0,1,4,1,1,0,4,0,4,1,1,9,0,0,4,9,0,0,0,0,0,0,0,0,0,0,0,0,0,0,0,0,0,0,0,0,0,0,0,0,0,0,0,0,0,0],"split_type":[0,0,0,0,0,0,0,0,0,0,0,0,0,0,0,0,0,0,0,0,0,0,0,0,0,0,0,0,0,0,0,0,0,0,0,0,0,0,0,0,0,0,0,0,0,0,0,0,0,0,0,0,0,0,0,0,0,0,0,0,0],"sum_hessian":[3.734E3,1.747E3,1.987E3,6.85E2,1.062E3,1.22E3,7.67E2,1.64E2,5.21E2,2.88E2,7.74E2,5.77E2,6.43E2,5.14E2,2.53E2,1.25E2,3.9E1,3.36E2,1.85E2,9.2E1,1.96E2,1.21E2,6.53E2,3.64E2,2.13E2,1.88E2,4.55E2,3.68E2,1.46E2,1.9E2,6.3E1,3.8E1,1E0,9.7E1,2.39E2,1.58E2,2.7E1,4E0,8.8E1,9.8E1,9.8E1,2.2E1,9.9E1,4.28E2,2.25E2,9.8E1,2.66E2,2.07E2,6E0,1.43E2,4.5E1,2.2E1,4.33E2,1.65E2,2.03E2,5E1,9.6E1,8.1E1,1.09E2,1.8E1,4.5E1],"tree_param":{"num_deleted":"0","num_feature":"10","num_nodes":"61","size_leaf_vector":"1"}},{"base_weights":[-1.6933377E-3,-1.6457605E-1,1.4180717E-1,-2.9945183E-1,-7.239975E-2,6.401051E-2,2.6138276E-1,-3.8873348E-1,-2.623061E-1,-1.2021365E-1,-3.80055E-2,1.7988415E-2,1.10078864E-1,2.2441755E-1,3.7264398E-1,-3.1181636E-1,-4.185303E-1,-2.7504924E-1,-1.400779E-1,-1.731766E-1,-8.849925E-2,-6.63294E-2,-1.860349E-2,-8.625334E-3,5.5365913E-2,1.383215E-1,8.061795E-2,1.9258933E-1,2.6684877E-1,3.4448424E-1,4.5885462E-1,-3.893715E-2,-2.7386505E-2,-4.5553673E-2,-2.9177323E-2,-2.4927167E-2,-3.3976097E-2,-1.8161345E-2,-6.275081E-3,-5.3189637E-4,-1.8891275E-2,-9.878468E-3,4.109929E-3,-3.693706E-3,-9.18792E-3,-2.7218505E-3,6.8632513E-3,3.7501862E-3,-2.0656385E-3,2.756657E-3,8.9563625E-3,1.1575436E-2,2.378066E-2,3.239457E-3,1.0655126E-2,1.4637015E-2,2.084524E-2,2.8078023E-2,1.724514E-2,4.1785695E-2,2.9423187E-2,4.6687666E-2,1.909203E-2],"categories":[],"categories_nodes":[],"categories_segments":[],"categories_sizes":[],"default_left":[0,0,0,0,0,0,0,0,0,0,0,0,0,0,0,0,0,0,0,0,0,0,0,0,0,0,0,0,0,0,0,0,0,0,0,0,0,0,0,0,0,0,0,0,0,0,0,0,0,0,0,0,0,0,0,0,0,0,0,0,0,0,0],"id":20,"left_children":[1,3,5,7,9,11,13,15,17,19,21,23,25,27,29,31,33,35,37,39,41,43,45,47,49,51,53,55,57,59,61,-1,-1,-1,-1,-1,-1,-1,-1,-1,-1,-1,-1,-1,-1,-1,-1,-1,-1,-1,-1,-1,-1,-1,-1,-1,-1,-1,-1,-1,-1,-1,-1],"loss_changes":[8.793202E1,2.1884117E1,1.8588428E1,2.2692795E0,1.7188911E0,2.5697765E0,3.1572533E0,3.4620667E-1,7.5271606E-1,7.203779E-1,3.3453524E-1,6.0528886E-1,4.9307346E-1,7.5081444E-1,3.153286E-1,7.585049E-2,5.566387E-1,6.8096924E-1,1.4919472E-1,4.2954874E-1,3.719616E-1,1.8284643E-1,2.754284E-1,1.9833991E-1,2.3805153E-1,6.639619E-1,3.704753E-1,2.2096825E-1,2.8298187E-1,4.338112E-1,7.586479E-3,0E0,0E0,0E0,0E0,0E0,0E0,0E0,0E0,0E0,0E0,0E0,0E0,0E0,0E0,0E0,0E0,0E0,0E0,0E0,0E0,0E0,0E0,0E0,0E0,0E0,0E0,0E0,0E0,0E0,0E0,0E0,0E0],"parents":[2147483647,0,0,1,1,2,2,3,3,4,4,5,5,6,6,7,7,8,8,9,9,10,10,11,11,12,12,13,13,14,14,15,15,16,16,17,17,18,18,19,19,20,20,21,21,22,22,23,23,24,24,25,25,26,26,27,27,28,28,29,29,30,30],"right_children":[2,4,6,8,10,12,14,16,18,20,22,24,26,28,30,32,34,36,38,40,42,44,46,48,50,52,54,56,58,60,62,-1,-1,-1,-1,-1,-1,-1,-1,-1,-1,-1,-1,-1,-1,-1,-1,-1,-1,-1,-1,-1,-1,-1,-1,-1,-1,-1,-1,-1,-1,-1,-1],"split_conditions":[-8.427062E-1,-3.6746476E0,1.5888416E0,-6.5915565E0,-1.9757059E0,1.2948117E-1,4.0253224E0,-1.1189456E0,1.7975682E0,-7.250616E-1,-5.4189008E-2,1.056373E-1,-2.2797051E-1,2.6418939E0,5.516414E0,-7.1960196E0,1.5362468E0,9.780088E-1,4.647811E0,-1.7090251E0,1.7975682E0,-3.184123E-1,8.1207466E-1,-6.746267E-1,3.8821284E-2,6.96412E-1,-3.502838E-1,-1.1846162E0,2.3267457E0,-2.4389835E-1,1.9170954E0,-3.893715E-2,-2.7386505E-2,-4.5553673E-2,-2.9177323E-2,-2.4927167E-2,-3.3976097E-2,-1.8161345E-2,-6.275081E-3,-5.3189637E-4,-1.8891275E-2,-9.878468E-3,4.109929E-3,-3.693706E-3,-9.18792E-3,-2.7218505E-3,6.8632513E-3,3.7501862E-3,-2.0656385E-3,2.756657E-3,8.9563625E-3,1.1575436E-2,2.378066E-2,3.239457E-3,1.0655126E-2,1.4637015E-2,2.084524E-2,2.8078023E-2,1.724514E-2,4.1785695E-2,2.9423187E-2,4.6687666E-2,1.909203E-2],"split_indices":[0,0,0,0,0,0,0,4,4,1,1,1,2,0,0,0,7,2,1,4,4,4,7,2,7,7,1,1,2,4,4,0,0,0,0,0,0,0,0,0,0,0,0,0,0,0,0,0,0,0,0,0,0,0,0,0,0,0,0,0,0,0,0],"split_type":[0,0,0,0,0,0,0,0,0,0,0,0,0,0,0,0,0,0,0,0,0,0,0,0,0,0,0,0,0,0,0,0,0,0,0,0,0,0,0,0,0,0,0,0,0,0,0,0,0,0,0,0,0,0,0,0,0,0,0,0,0,0,0],"sum_hessian":[3.76E3,1.761E3,1.999E3,7.14E2,1.047E3,1.212E3,7.87E2,2.07E2,5.07E2,4.37E2,6.1E2,6.07E2,6.05E2,5.93E2,1.94E2,6.1E1,1.46E2,4.58E2,4.9E1,1.62E2,2.75E2,2.47E2,3.63E2,3.55E2,2.52E2,3.07E2,2.98E2,3.42E2,2.51E2,1.5E2,4.4E1,1.7E1,4.4E1,1.11E2,3.5E1,3.31E2,1.27E2,3.1E1,1.8E1,1.4E1,1.48E2,2.55E2,2E1,1.16E2,1.31E2,3.31E2,3.2E1,7.3E1,2.82E2,1.4E2,1.12E2,2.52E2,5.5E1,1.05E2,1.93E2,9E1,2.52E2,2.17E2,3.4E1,5.8E1,9.2E1,4.2E1,2E0],"tree_param":{"num_deleted":"0","num_feature":"10","num_nodes":"63","size_leaf_vector":"1"}},{"base_weights":[6.9423666E-4,-1.1533841E-1,1.5679316E-1,-2.529129E-1,-3.611758E-2,9.42211E-2,2.5423342E-1,-3.0385885E-1,-1.8325132E-1,-6.970279E-2,-6.8773767E-3,5.7501186E-2,1.2833427E-1,2.193379E-1,3.396519E-1,-2.2743319E-1,-3.3395723E-1,-2.131009E-1,-1.294384E-1,-1.276849E-1,-5.5836767E-2,-2.327211E-2,3.8841683E-2,1.3550049E-1,4.805616E-2,1.1505561E-1,2.0713381E-1,1.912437E-1,2.5642714E-1,2.5873393E-1,3.746738E-1,-2.6345719E-2,-1.1356093E-2,-3.3998005E-2,-8.806E-3,-1.8883081E-2,-3.1591874E-2,-2.2687109E-3,-1.4910104E-2,1.3432442E-2,-1.332172E-2,-2.151091E-3,-7.0860214E-3,-6.0699498E-5,-5.030056E-3,3.17327E-3,1.9838167E-2,2.1057477E-2,9.730938E-3,7.969617E-3,2.7599062E-3,1.597026E-2,8.889036E-3,2.2299876E-2,1.436217E-2,1.6513644E-2,2.1606082E-2,2.2089433E-2,2.7383922E-2,2.0450344E-2,3.5643153E-2,3.2663446E-2,4.52411E-2],"categories":[],"categories_nodes":[],"categories_segments":[],"categories_sizes":[],"default_left":[0,0,0,0,0,0,0,0,0,0,0,0,0,0,0,0,0,0,0,0,0,0,0,0,0,0,0,0,0,0,0,0,0,0,0,0,0,0,0,0,0,0,0,0,0,0,0,0,0,0,0,0,0,0,0,0,0,0,0,0,0,0,0],"id":21,"left_children":[1,3,5,7,9,11,13,15,17,19,21,23,25,27,29,31,33,35,37,39,41,43,45,47,49,51,53,55,57,59,61,-1,-1,-1,-1,-1,-1,-1,-1,-1,-1,-1,-1,-1,-1,-1,-1,-1,-1,-1,-1,-1,-1,-1,-1,-1,-1,-1,-1,-1,-1,-1,-1],"loss_changes":[6.741496E1,2.325973E1,9.652046E0,2.7125206E0,1.3311647E0,1.2051697E0,1.7735481E0,9.5687485E-1,5.0570583E-1,5.001826E-1,5.450785E-1,3.382666E-1,5.0039005E-1,4.1256332E-1,4.074936E-1,5.033593E-1,4.4397736E-1,4.6936893E-1,2.5059772E-1,1.9328535E-1,2.6199472E-1,3.27712E-1,2.1146485E-1,1.22867584E-1,2.6900345E-1,4.8929834E-1,3.951335E-2,1.3018513E-1,5.5826187E-2,2.2910547E-1,3.078289E-1,0E0,0E0,0E0,0E0,0E0,0E0,0E0,0E0,0E0,0E0,0E0,0E0,0E0,0E0,0E0,0E0,0E0,0E0,0E0,0E0,0E0,0E0,0E0,0E0,0E0,0E0,0E0,0E0,0E0,0E0,0E0,0E0],"parents":[2147483647,0,0,1,1,2,2,3,3,4,4,5,5,6,6,7,7,8,8,9,9,10,10,11,11,12,12,13,13,14,14,15,15,16,16,17,17,18,18,19,19,20,20,21,21,22,22,23,23,24,24,25,25,26,26,27,27,28,28,29,29,30,30],"right_children":[2,4,6,8,10,12,14,16,18,20,22,24,26,28,30,32,34,36,38,40,42,44,46,48,50,52,54,56,58,60,62,-1,-1,-1,-1,-1,-1,-1,-1,-1,-1,-1,-1,-1,-1,-1,-1,-1,-1,-1,-1,-1,-1,-1,-1,-1,-1,-1,-1,-1,-1,-1,-1],"split_conditions":[-2.358407E-1,-3.1767523E0,2.027463E0,-5.055072E0,-1.2692945E0,7.857827E-1,4.1555467E0,-1.0961174E0,4.6104947E-1,-1.7097964E0,1.3015517E0,-2.0652514E0,2.8999994E0,1.0460044E0,-6.864694E-1,-6.028507E0,5.0341554E0,1.9385536E0,-1.1409674E0,-1.0077128E0,-3.7797284E-1,2.2533041E-1,5.4066086E0,-2.9744184E-2,-2.2509953E-1,-2.0000896E-1,1.6965551E0,2.8084097E0,2.5861323E0,-9.935105E-1,5.074154E0,-2.6345719E-2,-1.1356093E-2,-3.3998005E-2,-8.806E-3,-1.8883081E-2,-3.1591874E-2,-2.2687109E-3,-1.4910104E-2,1.3432442E-2,-1.332172E-2,-2.151091E-3,-7.0860214E-3,-6.0699498E-5,-5.030056E-3,3.17327E-3,1.9838167E-2,2.1057477E-2,9.730938E-3,7.969617E-3,2.7599062E-3,1.597026E-2,8.889036E-3,2.2299876E-2,1.436217E-2,1.6513644E-2,2.1606082E-2,2.2089433E-2,2.7383922E-2,2.0450344E-2,3.5643153E-2,3.2663446E-2,4.52411E-2],"split_indices":[0,0,0,0,0,0,0,4,1,1,1,2,1,1,9,0,1,2,4,9,9,2,1,9,4,4,2,0,0,1,0,0,0,0,0,0,0,0,0,0,0,0,0,0,0,0,0,0,0,0,0,0,0,0,0,0,0,0,0,0,0,0,0],"split_type":[0,0,0,0,0,0,0,0,0,0,0,0,0,0,0,0,0,0,0,0,0,0,0,0,0,0,0,0,0,0,0,0,0,0,0,0,0,0,0,0,0,0,0,0,0,0,0,0,0,0,0,0,0,0,0,0,0,0,0,0,0,0,0],"sum_hessian":[3.72E3,2.134E3,1.586E3,7.79E2,1.355E3,9.67E2,6.19E2,4.48E2,3.31E2,6.3E2,7.25E2,4.67E2,5E2,4.42E2,1.77E2,1.29E2,3.19E2,2.11E2,1.2E2,1.2E2,5.1E2,5.34E2,1.91E2,4.9E1,4.18E2,4.3E2,7E1,2.55E2,1.87E2,5.6E1,1.21E2,9.7E1,3.2E1,3.11E2,8E0,1.73E2,3.8E1,1.9E1,1.01E2,2E0,1.18E2,1.56E2,3.54E2,2.91E2,2.43E2,1.84E2,7E0,1.5E1,3.4E1,1.63E2,2.55E2,1.57E2,2.73E2,5.4E1,1.6E1,1.28E2,1.27E2,6.6E1,1.21E2,3.8E1,1.8E1,7.8E1,4.3E1],"tree_param":{"num_deleted":"0","num_feature":"10","num_nodes":"63","size_leaf_vector":"1"}},{"base_weights":[-4.0384216E-4,-1.2449676E-1,1.2415505E-1,-2.5412148E-1,-5.806691E-2,7.240136E-2,2.39556E-1,-3.2827854E-1,-2.2624439E-1,-1.2768261E-1,-4.0163323E-2,3.0889673E-2,1.13163024E-1,2.0450503E-1,3.2367116E-1,-3.5652447E-1,-2.527929E-1,-3.5016328E-1,-2.094126E-1,-4.967704E-2,-1.4665109E-1,-1.310623E-1,-3.558052E-2,1.1905659E-2,7.681402E-2,1.022546E-1,1.8544771E-1,1.52719E-1,2.2298418E-1,2.851468E-1,3.8181776E-1,-2.733441E-2,-3.983398E-2,-3.143108E-3,-2.5666902E-2,-5.655116E-3,-3.5463613E-2,-2.4890853E-2,-1.769359E-2,-2.0576695E-3,-1.2511534E-2,-1.3060852E-2,-2.2533678E-2,-4.0378976E-3,-1.7656406E-2,8.2940323E-4,-4.2249723E-3,4.4404636E-3,-8.2606304E-4,6.3324855E-3,1.8628232E-2,2.8317887E-2,9.816585E-3,1.1775547E-2,2.0212507E-2,2.4883164E-2,1.4073922E-2,2.2788115E-2,1.3856678E-2,3.164435E-2,1.6633539E-2,4.193194E-2,2.5347112E-2],"categories":[],"categories_nodes":[],"categories_segments":[],"categories_sizes":[],"default_left":[0,0,0,0,0,0,0,0,0,0,0,0,0,0,0,0,0,0,0,0,0,0,0,0,0,0,0,0,0,0,0,0,0,0,0,0,0,0,0,0,0,0,0,0,0,0,0,0,0,0,0,0,0,0,0,0,0,0,0,0,0,0,0],"id":22,"left_children":[1,3,5,7,9,11,13,15,17,19,21,23,25,27,29,31,33,35,37,39,41,43,45,47,49,51,53,55,57,59,61,-1,-1,-1,-1,-1,-1,-1,-1,-1,-1,-1,-1,-1,-1,-1,-1,-1,-1,-1,-1,-1,-1,-1,-1,-1,-1,-1,-1,-1,-1,-1,-1],"loss_changes":[5.7762344E1,1.6104944E1,1.1121225E1,1.2363892E0,1.539125E0,2.1776023E0,1.6349869E0,2.7447128E-1,8.944721E-1,3.6706543E-1,4.064933E-1,5.570558E-1,4.9356937E-1,3.5829926E-1,2.6745605E-1,3.154583E-1,3.4833908E-2,5.0861835E-2,4.8314667E-1,1.09384865E-1,2.2682047E-1,1.8680423E-1,2.7569485E-1,2.9791105E-1,2.6433456E-1,3.9164257E-1,7.102871E-2,9.2785835E-2,9.244156E-2,3.3779716E-1,2.0175934E-1,0E0,0E0,0E0,0E0,0E0,0E0,0E0,0E0,0E0,0E0,0E0,0E0,0E0,0E0,0E0,0E0,0E0,0E0,0E0,0E0,0E0,0E0,0E0,0E0,0E0,0E0,0E0,0E0,0E0,0E0,0E0,0E0],"parents":[2147483647,0,0,1,1,2,2,3,3,4,4,5,5,6,6,7,7,8,8,9,9,10,10,11,11,12,12,13,13,14,14,15,15,16,16,17,17,18,18,19,19,20,20,21,21,22,22,23,23,24,24,25,25,26,26,27,27,28,28,29,29,30,30],"right_children":[2,4,6,8,10,12,14,16,18,20,22,24,26,28,30,32,34,36,38,40,42,44,46,48,50,52,54,56,58,60,62,-1,-1,-1,-1,-1,-1,-1,-1,-1,-1,-1,-1,-1,-1,-1,-1,-1,-1,-1,-1,-1,-1,-1,-1,-1,-1,-1,-1,-1,-1,-1,-1],"split_conditions":[-6.874576E-1,-4.122543E0,2.2247353E0,-6.9090743E0,-2.7721343E0,5.842082E-1,4.2593665E0,1.4145733E0,-1.028681E0,-6.317041E-1,-4.4450974E0,1.8729836E0,2.8999994E0,-1.2517074E0,5.2855597E0,-8.587536E-1,-1.3480252E0,-4.3759465E0,-5.5003037E0,-3.8895944E-1,1.8087258E0,2.727777E-1,-1.0961174E0,-2.5037572E-1,1.6642233E0,-1.1039035E0,-1.8315913E-1,-2.3628244E0,2.529422E0,1.1823782E0,1.5805447E0,-2.733441E-2,-3.983398E-2,-3.143108E-3,-2.5666902E-2,-5.655116E-3,-3.5463613E-2,-2.4890853E-2,-1.769359E-2,-2.0576695E-3,-1.2511534E-2,-1.3060852E-2,-2.2533678E-2,-4.0378976E-3,-1.7656406E-2,8.2940323E-4,-4.2249723E-3,4.4404636E-3,-8.2606304E-4,6.3324855E-3,1.8628232E-2,2.8317887E-2,9.816585E-3,1.1775547E-2,2.0212507E-2,2.4883164E-2,1.4073922E-2,2.2788115E-2,1.3856678E-2,3.164435E-2,1.6633539E-2,4.193194E-2,2.5347112E-2],"split_indices":[0,0,0,0,0,0,0,7,7,9,1,1,1,1,0,4,9,1,0,4,2,7,4,4,7,9,7,2,2,4,4,0,0,0,0,0,0,0,0,0,0,0,0,0,0,0,0,0,0,0,0,0,0,0,0,0,0,0,0,0,0,0,0],"split_type":[0,0,0,0,0,0,0,0,0,0,0,0,0,0,0,0,0,0,0,0,0,0,0,0,0,0,0,0,0,0,0,0,0,0,0,0,0,0,0,0,0,0,0,0,0,0,0,0,0,0,0,0,0,0,0,0,0,0,0,0,0,0,0],"sum_hessian":[3.735E3,1.871E3,1.864E3,6.33E2,1.238E3,1.288E3,5.76E2,1.7E2,4.63E2,2.52E2,9.86E2,6.39E2,6.49E2,4.09E2,1.67E2,1.21E2,4.9E1,5.3E1,4.1E2,5E1,2.02E2,4.6E1,9.4E2,4.53E2,1.86E2,5.66E2,8.3E1,1.1E2,2.99E2,1.04E2,6.3E1,4.3E1,7.8E1,1E0,4.8E1,1E0,5.2E1,1.82E2,2.28E2,3.7E1,1.3E1,1.7E2,3.2E1,1.6E1,3E1,1.24E2,8.16E2,1.73E2,2.8E2,1.67E2,1.9E1,1.1E1,5.55E2,1.8E1,6.5E1,1E1,1E2,2.81E2,1.8E1,8.1E1,2.3E1,4.7E1,1.6E1],"tree_param":{"num_deleted":"0","num_feature":"10","num_nodes":"63","size_leaf_vector":"1"}},{"base_weights":[8.219048E-5,-1.2397246E-1,9.926694E-2,-2.2685198E-1,-5.9664816E-2,4.3695524E-2,1.9133963E-1,-3.08838E-1,-2.0740494E-1,-1.0384992E-1,-3.69056E-2,1.1274088E-2,7.920151E-2,1.5129511E-1,2.5118107E-1,-2.8521904E-1,-3.6897045E-1,-2.1776465E-1,-8.896998E-2,-4.496401E-2,-1.2513019E-1,-4.2209473E-2,2.996046E-2,-6.6851275E-3,4.0142998E-2,2.1553981E-1,7.481789E-2,1.1398429E-1,1.64364E-1,2.3219272E-1,3.25227E-1,-2.9823063E-2,-2.0477468E-2,-3.915819E-2,-2.3550522E-2,-1.4299552E-2,-2.3715911E-2,-1.14047015E-2,-3.3709678E-4,-1.3792758E-4,-1.1324875E-2,-2.179615E-2,-1.1809192E-2,-7.7797356E-3,-3.4036876E-3,1.5173493E-3,1.6296586E-2,2.5311215E-3,-1.8354672E-3,9.220983E-3,2.7847723E-3,-5.1825345E-3,2.3327261E-2,6.70845E-3,1.2898511E-2,1.1635049E-2,-9.20781E-3,1.3062783E-2,1.7784866E-2,1.8035412E-2,2.5199419E-2,2.125517E-2,3.5979774E-2],"categories":[],"categories_nodes":[],"categories_segments":[],"categories_sizes":[],"default_left":[0,0,0,0,0,0,0,0,0,0,0,0,0,0,0,0,0,0,0,0,0,0,0,0,0,0,0,0,0,0,0,0,0,0,0,0,0,0,0,0,0,0,0,0,0,0,0,0,0,0,0,0,0,0,0,0,0,0,0,0,0,0,0],"id":23,"left_children":[1,3,5,7,9,11,13,15,17,19,21,23,25,27,29,31,33,35,37,39,41,43,45,47,49,51,53,55,57,59,61,-1,-1,-1,-1,-1,-1,-1,-1,-1,-1,-1,-1,-1,-1,-1,-1,-1,-1,-1,-1,-1,-1,-1,-1,-1,-1,-1,-1,-1,-1,-1,-1],"loss_changes":[4.66088E1,1.112109E1,1.0762104E1,9.6751404E-1,1.0389931E0,1.5117247E0,1.8598824E0,6.8035126E-2,6.2600327E-1,4.3546796E-1,2.4455386E-1,3.569709E-1,3.5860443E-1,2.1385574E-1,3.6878395E-1,3.5226822E-2,1.3337135E-3,6.6648674E-1,9.406462E-2,2.8258017E-1,1.4283085E-1,1.8232977E-1,9.783131E-2,1.5915224E-1,1.6643864E-1,1.02170944E-1,2.4645472E-1,7.2636485E-2,1.3644409E-1,2.1630383E-1,1.6503048E-1,0E0,0E0,0E0,0E0,0E0,0E0,0E0,0E0,0E0,0E0,0E0,0E0,0E0,0E0,0E0,0E0,0E0,0E0,0E0,0E0,0E0,0E0,0E0,0E0,0E0,0E0,0E0,0E0,0E0,0E0,0E0,0E0],"parents":[2147483647,0,0,1,1,2,2,3,3,4,4,5,5,6,6,7,7,8,8,9,9,10,10,11,11,12,12,13,13,14,14,15,15,16,16,17,17,18,18,19,19,20,20,21,21,22,22,23,23,24,24,25,25,26,26,27,27,28,28,29,29,30,30],"right_children":[2,4,6,8,10,12,14,16,18,20,22,24,26,28,30,32,34,36,38,40,42,44,46,48,50,52,54,56,58,60,62,-1,-1,-1,-1,-1,-1,-1,-1,-1,-1,-1,-1,-1,-1,-1,-1,-1,-1,-1,-1,-1,-1,-1,-1,-1,-1,-1,-1,-1,-1,-1,-1],"split_conditions":[-9.1212565E-1,-4.122543E0,1.5564777E0,-7.1409197E0,-2.3371506E0,1.2948117E-1,3.2484684E0,4.061601E-1,1.9170954E0,-5.939929E-1,2.9706392E0,5.769647E-1,-1.1039035E0,-1.1846162E0,5.2855597E0,7.247221E-1,3.5768101E0,-1.1409674E0,1.10832E0,-3.8895944E-1,-6.5413656E0,-1.9757059E0,1.5676827E0,-5.154809E-1,-6.600335E-1,-7.298003E0,2.7386453E0,2.1665967E0,-3.9196572E-1,-6.0596174E-1,-8.5566217E-1,-2.9823063E-2,-2.0477468E-2,-3.915819E-2,-2.3550522E-2,-1.4299552E-2,-2.3715911E-2,-1.14047015E-2,-3.3709678E-4,-1.3792758E-4,-1.1324875E-2,-2.179615E-2,-1.1809192E-2,-7.7797356E-3,-3.4036876E-3,1.5173493E-3,1.6296586E-2,2.5311215E-3,-1.8354672E-3,9.220983E-3,2.7847723E-3,-5.1825345E-3,2.3327261E-2,6.70845E-3,1.2898511E-2,1.1635049E-2,-9.20781E-3,1.3062783E-2,1.7784866E-2,1.8035412E-2,2.5199419E-2,2.125517E-2,3.5979774E-2],"split_indices":[0,0,0,0,0,0,0,9,4,9,1,1,9,1,0,4,1,4,9,4,1,0,6,4,9,1,1,4,8,1,9,0,0,0,0,0,0,0,0,0,0,0,0,0,0,0,0,0,0,0,0,0,0,0,0,0,0,0,0,0,0,0,0],"split_type":[0,0,0,0,0,0,0,0,0,0,0,0,0,0,0,0,0,0,0,0,0,0,0,0,0,0,0,0,0,0,0,0,0,0,0,0,0,0,0,0,0,0,0,0,0,0,0,0,0,0,0,0,0,0,0,0,0,0,0,0,0,0,0],"sum_hessian":[3.786E3,1.682E3,2.104E3,6.46E2,1.036E3,1.313E3,7.91E2,1.21E2,5.25E2,3.51E2,6.85E2,6.87E2,6.26E2,4.76E2,3.15E2,9.1E1,3E1,4.82E2,4.3E1,9.4E1,2.57E2,6.35E2,5E1,4.24E2,2.63E2,1.8E1,6.08E2,1.26E2,3.5E2,2.54E2,6.1E1,7.6E1,1.5E1,2.4E1,6E0,1.01E2,3.81E2,3.3E1,1E1,5.8E1,3.6E1,1.6E1,2.41E2,1.17E2,5.18E2,4.6E1,4E0,1.13E2,3.11E2,4.9E1,2.14E2,1E0,1.7E1,5.34E2,7.4E1,1.25E2,1E0,1.03E2,2.47E2,7.3E1,1.81E2,1.6E1,4.5E1],"tree_param":{"num_deleted":"0","num_feature":"10","num_nodes":"63","size_leaf_vector":"1"}},{"base_weights":[7.8076293E-4,-8.465879E-2,1.15393005E-1,-1.8638822E-1,-2.6561381E-2,7.611724E-2,1.9982524E-1,-2.3057307E-1,-1.3565794E-1,-5.296396E-2,-6.7339526E-3,5.297974E-2,1.1289106E-1,1.698338E-1,2.4554144E-1,-1.8510567E-1,-2.7922294E-1,-1.6901563E-1,-9.868648E-2,-5.6197785E-2,1.3924737E-1,2.2973232E-2,-1.8979378E-2,-7.198858E-2,5.790454E-2,1.5010087E-1,9.428172E-2,1.4939617E-1,2.0945704E-1,2.6202938E-1,1.636091E-1,-1.3615908E-2,-2.2938209E-2,-3.0099163E-2,-1.6472805E-2,-1.2987164E-2,-2.3051042E-2,-2.0629817E-3,-1.1087549E-2,4.000259E-3,-6.2472215E-3,-5.694373E-3,1.6737347E-2,1.2743342E-3,6.4518936E-3,3.6804404E-3,-2.606944E-3,6.008113E-3,-1.0629476E-2,1.3630295E-2,4.664237E-3,1.0356486E-2,1.6986635E-2,7.37641E-3,1.19065195E-2,1.5573591E-2,6.3585863E-3,2.148514E-2,8.643984E-3,2.2124391E-2,3.0311191E-2,1.7837912E-2,8.542091E-5],"categories":[],"categories_nodes":[],"categories_segments":[],"categories_sizes":[],"default_left":[0,0,0,0,0,0,0,0,0,0,0,0,0,0,0,0,0,0,0,0,0,0,0,0,0,0,0,0,0,0,0,0,0,0,0,0,0,0,0,0,0,0,0,0,0,0,0,0,0,0,0,0,0,0,0,0,0,0,0,0,0,0,0],"id":24,"left_children":[1,3,5,7,9,11,13,15,17,19,21,23,25,27,29,31,33,35,37,39,41,43,45,47,49,51,53,55,57,59,61,-1,-1,-1,-1,-1,-1,-1,-1,-1,-1,-1,-1,-1,-1,-1,-1,-1,-1,-1,-1,-1,-1,-1,-1,-1,-1,-1,-1,-1,-1,-1,-1],"loss_changes":[3.6731342E1,1.2696106E1,5.297247E0,1.7193394E0,7.1630836E-1,9.257045E-1,6.548157E-1,8.6849785E-1,4.3470192E-1,3.7269127E-1,2.8527352E-1,4.1897786E-1,2.7806187E-1,2.1974754E-1,2.2595787E-1,4.4121265E-1,4.4640636E-1,4.2982912E-1,1.6516507E-1,3.5138142E-1,6.471175E-2,9.650465E-2,2.2046769E-1,1.2418729E-1,5.6666803E-1,1.1026096E-1,1.3563061E-1,1.0325241E-1,4.9779415E-2,2.077322E-1,8.638775E-2,0E0,0E0,0E0,0E0,0E0,0E0,0E0,0E0,0E0,0E0,0E0,0E0,0E0,0E0,0E0,0E0,0E0,0E0,0E0,0E0,0E0,0E0,0E0,0E0,0E0,0E0,0E0,0E0,0E0,0E0,0E0,0E0],"parents":[2147483647,0,0,1,1,2,2,3,3,4,4,5,5,6,6,7,7,8,8,9,9,10,10,11,11,12,12,13,13,14,14,15,15,16,16,17,17,18,18,19,19,20,20,21,21,22,22,23,23,24,24,25,25,26,26,27,27,28,28,29,29,30,30],"right_children":[2,4,6,8,10,12,14,16,18,20,22,24,26,28,30,32,34,36,38,40,42,44,46,48,50,52,54,56,58,60,62,-1,-1,-1,-1,-1,-1,-1,-1,-1,-1,-1,-1,-1,-1,-1,-1,-1,-1,-1,-1,-1,-1,-1,-1,-1,-1,-1,-1,-1,-1,-1,-1],"split_conditions":[-2.358407E-1,-3.1767523E0,2.4216971E0,-5.1497035E0,-1.35874E0,1.2549267E0,4.0253224E0,-3.234517E-1,-5.4960394E-1,1.7371607E0,-6.746267E-1,-5.493053E0,-1.0240433E0,1.5458888E0,1.5805447E0,-1.0961174E0,3.5768101E0,-2.7138267E0,-1.0520179E0,-1.0077128E0,3.470359E-2,6.1511534E-1,-1.3890731E0,-5.46419E-1,-5.249367E-1,-7.546635E-1,2.4268618E-1,1.1005872E0,3.6635041E0,4.745657E0,3.1278431E0,-1.3615908E-2,-2.2938209E-2,-3.0099163E-2,-1.6472805E-2,-1.2987164E-2,-2.3051042E-2,-2.0629817E-3,-1.1087549E-2,4.000259E-3,-6.2472215E-3,-5.694373E-3,1.6737347E-2,1.2743342E-3,6.4518936E-3,3.6804404E-3,-2.606944E-3,6.008113E-3,-1.0629476E-2,1.3630295E-2,4.664237E-3,1.0356486E-2,1.6986635E-2,7.37641E-3,1.19065195E-2,1.5573591E-2,6.3585863E-3,2.148514E-2,8.643984E-3,2.2124391E-2,3.0311191E-2,1.7837912E-2,8.542091E-5],"split_indices":[0,0,0,0,0,0,0,9,1,7,2,1,2,1,4,4,1,1,4,9,1,7,4,7,9,1,1,7,2,0,2,0,0,0,0,0,0,0,0,0,0,0,0,0,0,0,0,0,0,0,0,0,0,0,0,0,0,0,0,0,0,0,0],"split_type":[0,0,0,0,0,0,0,0,0,0,0,0,0,0,0,0,0,0,0,0,0,0,0,0,0,0,0,0,0,0,0,0,0,0,0,0,0,0,0,0,0,0,0,0,0,0,0,0,0,0,0,0,0,0,0,0,0,0,0,0,0,0,0],"sum_hessian":[3.749E3,2.148E3,1.601E3,7.8E2,1.368E3,1.094E3,5.07E2,4.15E2,3.65E2,5.86E2,7.82E2,6.73E2,4.21E2,3.09E2,1.98E2,2.17E2,1.98E2,1.9E2,1.75E2,5.77E2,9E0,2.28E2,5.54E2,2.5E1,6.48E2,1.38E2,2.83E2,2.07E2,1.02E2,1.63E2,3.5E1,1.05E2,1.12E2,1.65E2,3.3E1,1.18E2,7.2E1,2.4E1,1.51E2,3.5E1,5.42E2,1E0,8E0,1.84E2,4.4E1,6.2E1,4.92E2,5E0,2E1,8E1,5.68E2,4.3E1,9.5E1,1.57E2,1.26E2,1.92E2,1.5E1,9.7E1,5E0,8.5E1,7.8E1,3.2E1,3E0],"tree_param":{"num_deleted":"0","num_feature":"10","num_nodes":"63","size_leaf_vector":"1"}},{"base_weights":[-2.281881E-4,1.1933981E-2,-3.4318704E-2,6.7470265E-3,6.2361144E-2,-6.562566E-2,-5.7100193E-3,2.6441198E-2,-4.542453E-3,1.4617042E-1,4.3663025E-2,-1.7678079E-1,-5.358203E-2,1.2443945E-2,-3.0409718E-2,1.8880486E-2,1.0470881E-1,-8.325864E-3,6.7872055E-2,1.8664806E-1,1.1203745E-1,5.7757027E-2,-3.0067932E-2,-6.059686E-2,-1.996459E-1,3.069453E-2,-6.1127283E-2,-7.2345324E-3,7.290677E-2,-7.012958E-2,-1.2673612E-2,2.2485293E-3,-8.295377E-3,-1.0924754E-2,1.2022236E-2,-6.899606E-3,-3.8527252E-4,1.7141346E-2,4.8881206E-3,5.9062766E-4,1.9584993E-2,9.1865165E-3,1.5943075E-2,6.697634E-3,-1.0566888E-2,7.419961E-3,-9.505328E-3,-7.424911E-3,-8.5426465E-4,-7.214968E-3,-2.2610797E-2,9.5575844E-4,1.1689651E-2,-5.1027904E-3,-1.3481997E-2,6.810515E-4,-6.9596185E-3,1.4496929E-2,2.8424703E-3,-1.3557329E-2,-3.3667837E-3,-5.0497437E-3,2.203795E-3],"categories":[],"categories_nodes":[],"categories_segments":[],"categories_sizes":[],"default_left":[0,0,0,0,0,0,0,0,0,0,0,0,0,0,0,0,0,0,0,0,0,0,0,0,0,0,0,0,0,0,0,0,0,0,0,0,0,0,0,0,0,0,0,0,0,0,0,0,0,0,0,0,0,0,0,0,0,0,0,0,0,0,0],"id":25,"left_children":[1,3,5,7,9,11,13,15,17,19,21,23,25,27,29,31,33,35,37,39,41,43,45,47,49,51,53,55,57,59,61,-1,-1,-1,-1,-1,-1,-1,-1,-1,-1,-1,-1,-1,-1,-1,-1,-1,-1,-1,-1,-1,-1,-1,-1,-1,-1,-1,-1,-1,-1,-1,-1],"loss_changes":[1.5688968E0,7.290796E-1,8.9079785E-1,5.6263256E-1,4.0105748E-1,6.264155E-1,2.339935E-1,5.4362464E-1,4.4138896E-1,4.4024706E-2,2.2411776E-1,1.10103846E-1,2.75308E-1,3.5866216E-1,1.5480033E-1,3.109574E-1,2.8199095E-1,4.1495508E-1,1.4892823E-1,3.210646E-2,1.212275E-2,2.7827865E-1,2.4420807E-1,5.7616346E-3,1.1189127E-1,6.4476416E-2,2.8709948E-1,2.0017287E-1,2.3308548E-1,1.5769655E-1,2.0330313E-1,0E0,0E0,0E0,0E0,0E0,0E0,0E0,0E0,0E0,0E0,0E0,0E0,0E0,0E0,0E0,0E0,0E0,0E0,0E0,0E0,0E0,0E0,0E0,0E0,0E0,0E0,0E0,0E0,0E0,0E0,0E0,0E0],"parents":[2147483647,0,0,1,1,2,2,3,3,4,4,5,5,6,6,7,7,8,8,9,9,10,10,11,11,12,12,13,13,14,14,15,15,16,16,17,17,18,18,19,19,20,20,21,21,22,22,23,23,24,24,25,25,26,26,27,27,28,28,29,29,30,30],"right_children":[2,4,6,8,10,12,14,16,18,20,22,24,26,28,30,32,34,36,38,40,42,44,46,48,50,52,54,56,58,60,62,-1,-1,-1,-1,-1,-1,-1,-1,-1,-1,-1,-1,-1,-1,-1,-1,-1,-1,-1,-1,-1,-1,-1,-1,-1,-1,-1,-1,-1,-1,-1,-1],"split_conditions":[8.9417255E-1,3.1308606E0,-1.0316158E-1,-1.0240433E0,3.2198942E-1,-1.1862695E0,3.1649098E-1,1.0726852E0,1.988961E0,-3.139849E-1,1.8076612E0,-5.0465137E-1,-2.5414636E0,3.5136175E-1,-6.179275E-1,1.6406068E0,-6.243097E0,-4.3759465E0,-1.0264218E0,-1.2855204E0,5.9253994E-2,1.0716087E0,-1.6621729E0,-6.104331E-1,-2.0482144E0,6.895E-1,3.2269096E0,5.592459E-1,-3.975173E-3,-4.5426476E-1,1.76287E0,2.2485293E-3,-8.295377E-3,-1.0924754E-2,1.2022236E-2,-6.899606E-3,-3.8527252E-4,1.7141346E-2,4.8881206E-3,5.9062766E-4,1.9584993E-2,9.1865165E-3,1.5943075E-2,6.697634E-3,-1.0566888E-2,7.419961E-3,-9.505328E-3,-7.424911E-3,-8.5426465E-4,-7.214968E-3,-2.2610797E-2,9.5575844E-4,1.1689651E-2,-5.1027904E-3,-1.3481997E-2,6.810515E-4,-6.9596185E-3,1.4496929E-2,2.8424703E-3,-1.3557329E-2,-3.3667837E-3,-5.0497437E-3,2.203795E-3],"split_indices":[2,1,1,2,4,7,6,8,3,7,7,4,3,4,7,4,1,1,8,6,2,9,2,4,3,6,2,7,3,3,1,0,0,0,0,0,0,0,0,0,0,0,0,0,0,0,0,0,0,0,0,0,0,0,0,0,0,0,0,0,0,0,0],"split_type":[0,0,0,0,0,0,0,0,0,0,0,0,0,0,0,0,0,0,0,0,0,0,0,0,0,0,0,0,0,0,0,0,0,0,0,0,0,0,0,0,0,0,0,0,0,0,0,0,0,0,0,0,0,0,0,0,0,0,0,0,0,0,0],"sum_hessian":[3.782E3,2.788E3,9.94E2,2.529E3,2.59E2,4.74E2,5.2E2,9.21E2,1.608E3,4.6E1,2.13E2,4.5E1,4.29E2,3E2,2.2E2,8.41E2,8E1,1.529E3,7.9E1,1.9E1,2.7E1,1.79E2,3.4E1,8E0,3.7E1,3.5E1,3.94E2,2.27E2,7.3E1,6.7E1,1.53E2,8.13E2,2.8E1,5E0,7.5E1,1.04E2,1.425E3,1.1E1,6.8E1,1E0,1.8E1,2.1E1,6E0,1.7E2,9E0,1.3E1,2.1E1,6E0,2E0,7E0,3E1,2.9E1,6E0,3.48E2,4.6E1,1.86E2,4.1E1,2.7E1,4.6E1,2.3E1,4.4E1,7.3E1,8E1],"tree_param":{"num_deleted":"0","num_feature":"10","num_nodes":"63","size_leaf_vector":"1"}},{"base_weights":[-3.0402408E-4,-9.666465E-2,8.386656E-2,-1.8057781E-1,-4.1746397E-2,3.472355E-2,1.5177874E-1,-2.556018E-1,-1.5971991E-1,-1.6730388E-1,-3.7647333E-2,1.5263029E-2,6.54875E-2,1.2476586E-1,2.1318321E-1,-2.2665967E-1,-3.3067957E-1,-1.6702974E-1,-5.8565367E-2,-5.628506E-3,-1.7755297E-1,-6.041987E-2,-2.2204824E-2,7.626918E-2,7.504305E-3,1.7803033E-1,5.8697265E-2,9.110531E-2,1.3674314E-1,1.9833247E-1,3.004397E-1,-2.4476236E-2,-1.587602E-2,-3.362204E-2,-6.0063424E-3,-1.0512213E-2,-1.7846249E-2,-8.090197E-3,-3.1970758E-3,6.508231E-4,-1.495099E-3,-2.1283447E-3,-1.8205252E-2,-6.7422064E-3,3.4382313E-3,2.409421E-3,-2.913838E-3,2.7553125E-3,1.4136876E-2,-2.7653866E-4,3.6288474E-3,9.974627E-3,2.5452588E-2,1.0306179E-2,4.7269403E-3,7.0967837E-3,1.24835875E-2,1.29444515E-2,2.0073907E-2,1.3571504E-2,2.1548184E-2,1.4358063E-2,3.1604793E-2],"categories":[],"categories_nodes":[],"categories_segments":[],"categories_sizes":[],"default_left":[0,0,0,0,0,0,0,0,0,0,0,0,0,0,0,0,0,0,0,0,0,0,0,0,0,0,0,0,0,0,0,0,0,0,0,0,0,0,0,0,0,0,0,0,0,0,0,0,0,0,0,0,0,0,0,0,0,0,0,0,0,0,0],"id":26,"left_children":[1,3,5,7,9,11,13,15,17,19,21,23,25,27,29,31,33,35,37,39,41,43,45,47,49,51,53,55,57,59,61,-1,-1,-1,-1,-1,-1,-1,-1,-1,-1,-1,-1,-1,-1,-1,-1,-1,-1,-1,-1,-1,-1,-1,-1,-1,-1,-1,-1,-1,-1,-1,-1],"loss_changes":[3.026924E1,8.011017E0,6.642849E0,1.0357876E0,5.356468E-1,6.9167614E-1,1.3600845E0,2.4663925E-1,3.9024448E-1,5.3682625E-2,3.5770833E-1,3.3549196E-1,3.31908E-1,2.2258472E-1,2.6955223E-1,9.6349716E-2,3.8283348E-2,3.3795834E-1,1.9986778E-2,4.3673813E-4,1.792258E-2,2.7581346E-1,1.9652238E-1,2.4981639E-1,1.866268E-1,1.2432158E-1,2.1009278E-1,9.710336E-2,1.739273E-1,2.0700264E-1,4.0311813E-2,0E0,0E0,0E0,0E0,0E0,0E0,0E0,0E0,0E0,0E0,0E0,0E0,0E0,0E0,0E0,0E0,0E0,0E0,0E0,0E0,0E0,0E0,0E0,0E0,0E0,0E0,0E0,0E0,0E0,0E0,0E0,0E0],"parents":[2147483647,0,0,1,1,2,2,3,3,4,4,5,5,6,6,7,7,8,8,9,9,10,10,11,11,12,12,13,13,14,14,15,15,16,16,17,17,18,18,19,19,20,20,21,21,22,22,23,23,24,24,25,25,26,26,27,27,28,28,29,29,30,30],"right_children":[2,4,6,8,10,12,14,16,18,20,22,24,26,28,30,32,34,36,38,40,42,44,46,48,50,52,54,56,58,60,62,-1,-1,-1,-1,-1,-1,-1,-1,-1,-1,-1,-1,-1,-1,-1,-1,-1,-1,-1,-1,-1,-1,-1,-1,-1,-1,-1,-1,-1,-1,-1,-1],"split_conditions":[-8.427062E-1,-3.6746476E0,1.4572229E0,-6.979201E0,-5.8030853E0,4.2954284E-1,3.590237E0,7.1467355E-2,1.7371607E0,-1.4757422E0,-1.9757059E0,-1.8270297E0,-1.0197766E0,-1.2126911E0,5.962695E0,1.7371607E0,2.2983844E0,-8.25751E-1,3.495501E0,-3.570657E0,-1.5474954E0,1.5094728E0,-4.895329E-1,6.342314E-2,1.76287E0,6.342314E-2,